time;user0;user1;
0.100001;0.000149873;-0.00132185;
0.100011;0.00140732;-0.0107879;
0.100021;0.00265922;-0.0202113;
0.100031;0.00390062;-0.0295548;
0.100041;0.00512663;-0.0387816;
0.100051;0.0063324;-0.047855;
0.100061;0.00751318;-0.0567392;
0.100071;0.00866432;-0.0653992;
0.100081;0.00978125;-0.0738008;
0.100091;0.0108596;-0.0819107;
0.100101;0.0118951;-0.089697;
0.100111;0.0128836;-0.0971289;
0.100121;0.0138213;-0.104177;
0.100131;0.0147044;-0.110814;
0.100141;0.0155295;-0.117014;
0.100151;0.0162934;-0.122751;
0.100161;0.0169929;-0.128004;
0.100171;0.0176253;-0.132752;
0.100181;0.0181882;-0.136976;
0.100191;0.0186794;-0.140659;
0.100201;0.0190968;-0.143788;
0.100211;0.0194388;-0.146349;
0.100221;0.0197041;-0.148333;
0.100231;0.0198917;-0.149733;
0.100241;0.0200007;-0.150541;
0.100251;0.0200308;-0.150756;
0.100261;0.0199819;-0.150377;
0.100271;0.0198541;-0.149405;
0.100281;0.0196479;-0.147843;
0.100291;0.0193642;-0.145698;
0.100301;0.0190041;-0.142979;
0.100311;0.018569;-0.139696;
0.100321;0.0180606;-0.135861;
0.100331;0.0174809;-0.131491;
0.100341;0.0168323;-0.126601;
0.100351;0.0161172;-0.121212;
0.100361;0.0153385;-0.115345;
0.100371;0.0144992;-0.109022;
0.100381;0.0136028;-0.102269;
0.100391;0.0126526;-0.0951116;
0.100401;0.0116526;-0.0875787;
0.100411;0.0106065;-0.0796998;
0.100421;0.00951858;-0.071506;
0.100431;0.00839309;-0.0630296;
0.100441;0.00723448;-0.0543042;
0.100451;0.00604732;-0.0453641;
0.100461;0.00483629;-0.0362447;
0.100471;0.00360617;-0.026982;
0.100481;0.00236183;-0.0176127;
0.100491;0.00110816;-0.00817371;
0.100501;-0.000149882;0.00129751;
0.100511;-0.00140733;0.0107635;
0.100521;-0.00265923;0.020187;
0.100531;-0.00390063;0.0295305;
0.100541;-0.00512664;0.0387572;
0.100551;-0.00633241;0.0478306;
0.100561;-0.00751319;0.0567149;
0.100571;-0.00866433;0.0653749;
0.100581;-0.00978126;0.0737765;
0.100591;-0.0108596;0.0818864;
0.100601;-0.0118951;0.0896727;
0.100611;-0.0128836;0.0971046;
0.100621;-0.0138213;0.104153;
0.100631;-0.0147044;0.11079;
0.100641;-0.0155296;0.116989;
0.100651;-0.0162934;0.122727;
0.100661;-0.0169929;0.12798;
0.100671;-0.0176253;0.132727;
0.100681;-0.0181882;0.136951;
0.100691;-0.0186794;0.140635;
0.100701;-0.0190968;0.143763;
0.100711;-0.0194388;0.146325;
0.100721;-0.0197041;0.148309;
0.100731;-0.0198917;0.149708;
0.100741;-0.0200007;0.150517;
0.100751;-0.0200308;0.150732;
0.100761;-0.0199819;0.150353;
0.100771;-0.0198541;0.14938;
0.100781;-0.0196479;0.147819;
0.100791;-0.0193642;0.145674;
0.100801;-0.0190041;0.142955;
0.100811;-0.018569;0.139671;
0.100821;-0.0180606;0.135837;
0.100831;-0.0174809;0.131467;
0.100841;-0.0168323;0.126577;
0.100851;-0.0161172;0.121188;
0.100861;-0.0153385;0.115321;
0.100871;-0.0144992;0.108998;
0.100881;-0.0136028;0.102245;
0.100891;-0.0126526;0.0950873;
0.100901;-0.0116526;0.0875544;
0.100911;-0.0106065;0.0796755;
0.100921;-0.00951859;0.0714818;
0.100931;-0.0083931;0.0630054;
0.100941;-0.00723449;0.0542799;
0.100951;-0.00604733;0.0453398;
0.100961;-0.0048363;0.0362204;
0.100971;-0.00360618;0.0269577;
0.100981;-0.00236184;0.0175884;
0.100991;-0.00110817;0.00814946;
0.101001;0.000149873;-0.00132175;
0.101011;0.00140732;-0.0107878;
0.101021;0.00265922;-0.0202112;
0.101031;0.00390062;-0.0295547;
0.101041;0.00512663;-0.0387815;
0.101051;0.0063324;-0.0478549;
0.101061;0.00751318;-0.0567391;
0.101071;0.00866432;-0.0653991;
0.101081;0.00978125;-0.0738007;
0.101091;0.0108596;-0.0819106;
0.101101;0.0118951;-0.0896969;
0.101111;0.0128836;-0.0971288;
0.101121;0.0138213;-0.104177;
0.101131;0.0147044;-0.110814;
0.101141;0.0155295;-0.117013;
0.101151;0.0162934;-0.122751;
0.101161;0.0169929;-0.128004;
0.101171;0.0176253;-0.132752;
0.101181;0.0181882;-0.136975;
0.101191;0.0186794;-0.140659;
0.101201;0.0190968;-0.143788;
0.101211;0.0194388;-0.146349;
0.101221;0.0197041;-0.148333;
0.101231;0.0198917;-0.149732;
0.101241;0.0200007;-0.150541;
0.101251;0.0200308;-0.150756;
0.101261;0.0199819;-0.150377;
0.101271;0.0198541;-0.149405;
0.101281;0.0196479;-0.147843;
0.101291;0.0193642;-0.145698;
0.101301;0.0190041;-0.142979;
0.101311;0.018569;-0.139696;
0.101321;0.0180606;-0.135861;
0.101331;0.0174809;-0.131491;
0.101341;0.0168323;-0.126601;
0.101351;0.0161172;-0.121212;
0.101361;0.0153385;-0.115345;
0.101371;0.0144992;-0.109022;
0.101381;0.0136028;-0.102269;
0.101391;0.0126526;-0.0951115;
0.101401;0.0116526;-0.0875786;
0.101411;0.0106065;-0.0796997;
0.101421;0.00951858;-0.0715059;
0.101431;0.00839309;-0.0630296;
0.101441;0.00723448;-0.0543041;
0.101451;0.00604732;-0.045364;
0.101461;0.00483629;-0.0362446;
0.101471;0.00360617;-0.0269819;
0.101481;0.00236183;-0.0176126;
0.101491;0.00110816;-0.00817362;
0.101501;-0.000149882;0.0012976;
0.101511;-0.00140733;0.0107636;
0.101521;-0.00265923;0.0201871;
0.101531;-0.00390063;0.0295306;
0.101541;-0.00512664;0.0387573;
0.101551;-0.00633241;0.0478307;
0.101561;-0.00751319;0.056715;
0.101571;-0.00866433;0.065375;
0.101581;-0.00978126;0.0737766;
0.101591;-0.0108596;0.0818865;
0.101601;-0.0118951;0.0896728;
0.101611;-0.0128836;0.0971047;
0.101621;-0.0138213;0.104153;
0.101631;-0.0147044;0.11079;
0.101641;-0.0155296;0.116989;
0.101651;-0.0162934;0.122727;
0.101661;-0.0169929;0.12798;
0.101671;-0.0176253;0.132727;
0.101681;-0.0181882;0.136951;
0.101691;-0.0186794;0.140635;
0.101701;-0.0190968;0.143763;
0.101711;-0.0194388;0.146325;
0.101721;-0.0197041;0.148309;
0.101731;-0.0198917;0.149708;
0.101741;-0.0200007;0.150517;
0.101751;-0.0200308;0.150732;
0.101761;-0.0199819;0.150353;
0.101771;-0.0198541;0.14938;
0.101781;-0.0196479;0.147819;
0.101791;-0.0193642;0.145674;
0.101801;-0.0190041;0.142955;
0.101811;-0.018569;0.139671;
0.101821;-0.0180606;0.135837;
0.101831;-0.0174809;0.131467;
0.101841;-0.0168323;0.126577;
0.101851;-0.0161172;0.121188;
0.101861;-0.0153385;0.115321;
0.101871;-0.0144992;0.108998;
0.101881;-0.0136028;0.102245;
0.101891;-0.0126526;0.0950874;
0.101901;-0.0116526;0.0875545;
0.101911;-0.0106065;0.0796756;
0.101921;-0.00951859;0.0714818;
0.101931;-0.0083931;0.0630055;
0.101941;-0.00723449;0.05428;
0.101951;-0.00604733;0.0453399;
0.101961;-0.0048363;0.0362205;
0.101971;-0.00360618;0.0269578;
0.101981;-0.00236184;0.0175885;
0.101991;-0.00110817;0.00814956;
0.102001;0.000149873;-0.00132166;
0.102011;0.00140732;-0.0107877;
0.102021;0.00265922;-0.0202111;
0.102031;0.00390062;-0.0295547;
0.102041;0.00512663;-0.0387814;
0.102051;0.0063324;-0.0478548;
0.102061;0.00751318;-0.056739;
0.102071;0.00866432;-0.0653991;
0.102081;0.00978126;-0.0738006;
0.102091;0.0108596;-0.0819105;
0.102101;0.0118951;-0.0896968;
0.102111;0.0128836;-0.0971287;
0.102121;0.0138213;-0.104177;
0.102131;0.0147044;-0.110814;
0.102141;0.0155295;-0.117013;
0.102151;0.0162934;-0.122751;
0.102161;0.0169929;-0.128004;
0.102171;0.0176253;-0.132751;
0.102181;0.0181882;-0.136975;
0.102191;0.0186794;-0.140659;
0.102201;0.0190968;-0.143787;
0.102211;0.0194388;-0.146349;
0.102221;0.0197041;-0.148333;
0.102231;0.0198917;-0.149732;
0.102241;0.0200007;-0.150541;
0.102251;0.0200308;-0.150756;
0.102261;0.0199819;-0.150377;
0.102271;0.0198541;-0.149404;
0.102281;0.0196479;-0.147843;
0.102291;0.0193642;-0.145698;
0.102301;0.0190041;-0.142979;
0.102311;0.018569;-0.139695;
0.102321;0.0180606;-0.135861;
0.102331;0.0174809;-0.131491;
0.102341;0.0168323;-0.126601;
0.102351;0.0161172;-0.121212;
0.102361;0.0153385;-0.115345;
0.102371;0.0144992;-0.109022;
0.102381;0.0136028;-0.102269;
0.102391;0.0126526;-0.0951114;
0.102401;0.0116526;-0.0875785;
0.102411;0.0106065;-0.0796996;
0.102421;0.00951858;-0.0715058;
0.102431;0.00839309;-0.0630295;
0.102441;0.00723448;-0.054304;
0.102451;0.00604732;-0.0453639;
0.102461;0.00483629;-0.0362445;
0.102471;0.00360617;-0.0269818;
0.102481;0.00236183;-0.0176125;
0.102491;0.00110816;-0.00817352;
0.102501;-0.000149881;0.00129769;
0.102511;-0.00140733;0.0107637;
0.102521;-0.00265923;0.0201872;
0.102531;-0.00390063;0.0295307;
0.102541;-0.00512664;0.0387574;
0.102551;-0.00633241;0.0478308;
0.102561;-0.00751319;0.0567151;
0.102571;-0.00866433;0.0653751;
0.102581;-0.00978126;0.0737766;
0.102591;-0.0108596;0.0818866;
0.102601;-0.0118951;0.0896729;
0.102611;-0.0128836;0.0971048;
0.102621;-0.0138213;0.104153;
0.102631;-0.0147044;0.11079;
0.102641;-0.0155296;0.116989;
0.102651;-0.0162934;0.122727;
0.102661;-0.0169929;0.12798;
0.102671;-0.0176253;0.132727;
0.102681;-0.0181882;0.136951;
0.102691;-0.0186794;0.140635;
0.102701;-0.0190968;0.143764;
0.102711;-0.0194388;0.146325;
0.102721;-0.0197041;0.148309;
0.102731;-0.0198917;0.149708;
0.102741;-0.0200007;0.150517;
0.102751;-0.0200308;0.150732;
0.102761;-0.0199819;0.150353;
0.102771;-0.0198541;0.149381;
0.102781;-0.0196479;0.147819;
0.102791;-0.0193642;0.145674;
0.102801;-0.0190041;0.142955;
0.102811;-0.018569;0.139672;
0.102821;-0.0180606;0.135837;
0.102831;-0.0174809;0.131467;
0.102841;-0.0168323;0.126577;
0.102851;-0.0161172;0.121188;
0.102861;-0.0153385;0.115321;
0.102871;-0.0144992;0.108998;
0.102881;-0.0136028;0.102245;
0.102891;-0.0126526;0.0950875;
0.102901;-0.0116526;0.0875546;
0.102911;-0.0106065;0.0796757;
0.102921;-0.00951859;0.0714819;
0.102931;-0.0083931;0.0630056;
0.102941;-0.00723449;0.0542801;
0.102951;-0.00604733;0.04534;
0.102961;-0.0048363;0.0362206;
0.102971;-0.00360618;0.0269579;
0.102981;-0.00236184;0.0175886;
0.102991;-0.00110817;0.00814965;
0.103001;0.000149873;-0.00132157;
0.103011;0.00140732;-0.0107876;
0.103021;0.00265922;-0.020211;
0.103031;0.00390062;-0.0295546;
0.103041;0.00512663;-0.0387813;
0.103051;0.0063324;-0.0478547;
0.103061;0.00751318;-0.056739;
0.103071;0.00866432;-0.065399;
0.103081;0.00978126;-0.0738005;
0.103091;0.0108596;-0.0819104;
0.103101;0.0118951;-0.0896967;
0.103111;0.0128836;-0.0971287;
0.103121;0.0138213;-0.104177;
0.103131;0.0147044;-0.110814;
0.103141;0.0155295;-0.117013;
0.103151;0.0162934;-0.122751;
0.103161;0.0169929;-0.128004;
0.103171;0.0176253;-0.132751;
0.103181;0.0181882;-0.136975;
0.103191;0.0186794;-0.140659;
0.103201;0.0190968;-0.143787;
0.103211;0.0194388;-0.146349;
0.103221;0.0197041;-0.148333;
0.103231;0.0198917;-0.149732;
0.103241;0.0200007;-0.150541;
0.103251;0.0200308;-0.150756;
0.103261;0.0199819;-0.150377;
0.103271;0.0198541;-0.149404;
0.103281;0.0196479;-0.147843;
0.103291;0.0193642;-0.145698;
0.103301;0.0190041;-0.142979;
0.103311;0.018569;-0.139695;
0.103321;0.0180606;-0.135861;
0.103331;0.0174809;-0.13149;
0.103341;0.0168323;-0.126601;
0.103351;0.0161172;-0.121212;
0.103361;0.0153385;-0.115345;
0.103371;0.0144992;-0.109022;
0.103381;0.0136028;-0.102269;
0.103391;0.0126526;-0.0951113;
0.103401;0.0116526;-0.0875784;
0.103411;0.0106065;-0.0796995;
0.103421;0.00951858;-0.0715057;
0.103431;0.00839309;-0.0630294;
0.103441;0.00723448;-0.0543039;
0.103451;0.00604732;-0.0453638;
0.103461;0.00483629;-0.0362444;
0.103471;0.00360617;-0.0269817;
0.103481;0.00236183;-0.0176124;
0.103491;0.00110816;-0.00817343;
0.103501;-0.000149881;0.00129778;
0.103511;-0.00140733;0.0107638;
0.103521;-0.00265923;0.0201872;
0.103531;-0.00390063;0.0295308;
0.103541;-0.00512663;0.0387575;
0.103551;-0.00633241;0.0478309;
0.103561;-0.00751319;0.0567152;
0.103571;-0.00866433;0.0653752;
0.103581;-0.00978126;0.0737767;
0.103591;-0.0108596;0.0818867;
0.103601;-0.0118951;0.089673;
0.103611;-0.0128836;0.0971049;
0.103621;-0.0138213;0.104153;
0.103631;-0.0147044;0.11079;
0.103641;-0.0155296;0.116989;
0.103651;-0.0162934;0.122727;
0.103661;-0.0169929;0.12798;
0.103671;-0.0176253;0.132728;
0.103681;-0.0181882;0.136951;
0.103691;-0.0186794;0.140635;
0.103701;-0.0190968;0.143764;
0.103711;-0.0194388;0.146325;
0.103721;-0.0197041;0.148309;
0.103731;-0.0198917;0.149709;
0.103741;-0.0200007;0.150517;
0.103751;-0.0200308;0.150732;
0.103761;-0.0199819;0.150353;
0.103771;-0.0198541;0.149381;
0.103781;-0.0196479;0.147819;
0.103791;-0.0193642;0.145674;
0.103801;-0.0190041;0.142955;
0.103811;-0.018569;0.139672;
0.103821;-0.0180606;0.135837;
0.103831;-0.0174809;0.131467;
0.103841;-0.0168323;0.126577;
0.103851;-0.0161172;0.121188;
0.103861;-0.0153385;0.115321;
0.103871;-0.0144992;0.108998;
0.103881;-0.0136028;0.102245;
0.103891;-0.0126526;0.0950876;
0.103901;-0.0116526;0.0875547;
0.103911;-0.0106065;0.0796758;
0.103921;-0.00951859;0.071482;
0.103931;-0.0083931;0.0630057;
0.103941;-0.00723449;0.0542802;
0.103951;-0.00604733;0.0453401;
0.103961;-0.0048363;0.0362207;
0.103971;-0.00360618;0.026958;
0.103981;-0.00236184;0.0175887;
0.103991;-0.00110817;0.00814974;
0.104001;0.000149873;-0.00132147;
0.104011;0.00140732;-0.0107875;
0.104021;0.00265922;-0.0202109;
0.104031;0.00390062;-0.0295545;
0.104041;0.00512663;-0.0387812;
0.104051;0.0063324;-0.0478546;
0.104061;0.00751319;-0.0567389;
0.104071;0.00866432;-0.0653989;
0.104081;0.00978126;-0.0738004;
0.104091;0.0108596;-0.0819103;
0.104101;0.0118951;-0.0896966;
0.104111;0.0128836;-0.0971286;
0.104121;0.0138213;-0.104177;
0.104131;0.0147044;-0.110814;
0.104141;0.0155295;-0.117013;
0.104151;0.0162934;-0.122751;
0.104161;0.0169929;-0.128003;
0.104171;0.0176253;-0.132751;
0.104181;0.0181882;-0.136975;
0.104191;0.0186794;-0.140659;
0.104201;0.0190968;-0.143787;
0.104211;0.0194388;-0.146349;
0.104221;0.0197041;-0.148333;
0.104231;0.0198917;-0.149732;
0.104241;0.0200007;-0.150541;
0.104251;0.0200308;-0.150756;
0.104261;0.0199819;-0.150377;
0.104271;0.0198541;-0.149404;
0.104281;0.0196479;-0.147843;
0.104291;0.0193642;-0.145698;
0.104301;0.0190041;-0.142979;
0.104311;0.018569;-0.139695;
0.104321;0.0180606;-0.135861;
0.104331;0.0174809;-0.13149;
0.104341;0.0168323;-0.126601;
0.104351;0.0161172;-0.121212;
0.104361;0.0153385;-0.115345;
0.104371;0.0144992;-0.109022;
0.104381;0.0136028;-0.102268;
0.104391;0.0126526;-0.0951112;
0.104401;0.0116526;-0.0875783;
0.104411;0.0106065;-0.0796994;
0.104421;0.00951858;-0.0715056;
0.104431;0.00839309;-0.0630293;
0.104441;0.00723448;-0.0543038;
0.104451;0.00604732;-0.0453637;
0.104461;0.00483629;-0.0362443;
0.104471;0.00360618;-0.0269816;
0.104481;0.00236183;-0.0176123;
0.104491;0.00110816;-0.00817334;
0.104501;-0.000149881;0.00129788;
0.104511;-0.00140733;0.0107639;
0.104521;-0.00265923;0.0201873;
0.104531;-0.00390063;0.0295309;
0.104541;-0.00512663;0.0387576;
0.104551;-0.00633241;0.047831;
0.104561;-0.00751319;0.0567153;
0.104571;-0.00866433;0.0653753;
0.104581;-0.00978126;0.0737768;
0.104591;-0.0108596;0.0818867;
0.104601;-0.0118951;0.089673;
0.104611;-0.0128836;0.097105;
0.104621;-0.0138213;0.104153;
0.104631;-0.0147044;0.11079;
0.104641;-0.0155296;0.11699;
0.104651;-0.0162934;0.122727;
0.104661;-0.0169929;0.12798;
0.104671;-0.0176253;0.132728;
0.104681;-0.0181882;0.136952;
0.104691;-0.0186794;0.140635;
0.104701;-0.0190968;0.143764;
0.104711;-0.0194388;0.146325;
0.104721;-0.0197041;0.148309;
0.104731;-0.0198917;0.149709;
0.104741;-0.0200007;0.150517;
0.104751;-0.0200308;0.150733;
0.104761;-0.0199819;0.150353;
0.104771;-0.0198541;0.149381;
0.104781;-0.0196479;0.147819;
0.104791;-0.0193642;0.145674;
0.104801;-0.0190041;0.142955;
0.104811;-0.018569;0.139672;
0.104821;-0.0180606;0.135837;
0.104831;-0.0174809;0.131467;
0.104841;-0.0168323;0.126578;
0.104851;-0.0161172;0.121189;
0.104861;-0.0153385;0.115321;
0.104871;-0.0144992;0.108998;
0.104881;-0.0136028;0.102245;
0.104891;-0.0126526;0.0950877;
0.104901;-0.0116526;0.0875548;
0.104911;-0.0106065;0.0796759;
0.104921;-0.00951859;0.0714821;
0.104931;-0.0083931;0.0630058;
0.104941;-0.00723449;0.0542803;
0.104951;-0.00604733;0.0453402;
0.104961;-0.0048363;0.0362208;
0.104971;-0.00360618;0.0269581;
0.104981;-0.00236184;0.0175888;
0.104991;-0.00110817;0.00814983;
0.105001;0.000149874;-0.00132138;
0.105011;0.00140732;-0.0107874;
0.105021;0.00265922;-0.0202108;
0.105031;0.00390062;-0.0295544;
0.105041;0.00512663;-0.0387811;
0.105051;0.0063324;-0.0478545;
0.105061;0.00751319;-0.0567388;
0.105071;0.00866432;-0.0653988;
0.105081;0.00978126;-0.0738003;
0.105091;0.0108596;-0.0819102;
0.105101;0.0118951;-0.0896965;
0.105111;0.0128836;-0.0971285;
0.105121;0.0138213;-0.104177;
0.105131;0.0147044;-0.110814;
0.105141;0.0155295;-0.117013;
0.105151;0.0162934;-0.12275;
0.105161;0.0169929;-0.128003;
0.105171;0.0176253;-0.132751;
0.105181;0.0181882;-0.136975;
0.105191;0.0186794;-0.140659;
0.105201;0.0190968;-0.143787;
0.105211;0.0194388;-0.146349;
0.105221;0.0197041;-0.148333;
0.105231;0.0198917;-0.149732;
0.105241;0.0200007;-0.150541;
0.105251;0.0200308;-0.150756;
0.105261;0.0199819;-0.150377;
0.105271;0.0198541;-0.149404;
0.105281;0.0196479;-0.147843;
0.105291;0.0193642;-0.145698;
0.105301;0.0190041;-0.142979;
0.105311;0.018569;-0.139695;
0.105321;0.0180606;-0.135861;
0.105331;0.0174809;-0.13149;
0.105341;0.0168323;-0.126601;
0.105351;0.0161172;-0.121212;
0.105361;0.0153385;-0.115344;
0.105371;0.0144992;-0.109022;
0.105381;0.0136028;-0.102268;
0.105391;0.0126526;-0.0951111;
0.105401;0.0116526;-0.0875782;
0.105411;0.0106065;-0.0796993;
0.105421;0.00951858;-0.0715055;
0.105431;0.00839309;-0.0630292;
0.105441;0.00723448;-0.0543037;
0.105451;0.00604732;-0.0453636;
0.105461;0.00483629;-0.0362442;
0.105471;0.00360618;-0.0269815;
0.105481;0.00236183;-0.0176122;
0.105491;0.00110816;-0.00817325;
0.105501;-0.000149881;0.00129797;
0.105511;-0.00140733;0.010764;
0.105521;-0.00265923;0.0201874;
0.105531;-0.00390063;0.029531;
0.105541;-0.00512663;0.0387577;
0.105551;-0.00633241;0.0478311;
0.105561;-0.00751319;0.0567154;
0.105571;-0.00866432;0.0653754;
0.105581;-0.00978126;0.0737769;
0.105591;-0.0108596;0.0818868;
0.105601;-0.0118951;0.0896731;
0.105611;-0.0128836;0.0971051;
0.105621;-0.0138213;0.104153;
0.105631;-0.0147044;0.11079;
0.105641;-0.0155296;0.11699;
0.105651;-0.0162934;0.122727;
0.105661;-0.0169929;0.12798;
0.105671;-0.0176253;0.132728;
0.105681;-0.0181882;0.136952;
0.105691;-0.0186794;0.140635;
0.105701;-0.0190968;0.143764;
0.105711;-0.0194388;0.146325;
0.105721;-0.0197041;0.14831;
0.105731;-0.0198917;0.149709;
0.105741;-0.0200007;0.150518;
0.105751;-0.0200308;0.150733;
0.105761;-0.0199819;0.150353;
0.105771;-0.0198541;0.149381;
0.105781;-0.0196479;0.147819;
0.105791;-0.0193642;0.145675;
0.105801;-0.0190041;0.142955;
0.105811;-0.018569;0.139672;
0.105821;-0.0180606;0.135837;
0.105831;-0.0174809;0.131467;
0.105841;-0.0168323;0.126578;
0.105851;-0.0161172;0.121189;
0.105861;-0.0153385;0.115321;
0.105871;-0.0144992;0.108998;
0.105881;-0.0136028;0.102245;
0.105891;-0.0126526;0.0950878;
0.105901;-0.0116526;0.0875549;
0.105911;-0.0106065;0.079676;
0.105921;-0.00951859;0.0714822;
0.105931;-0.0083931;0.0630058;
0.105941;-0.00723449;0.0542804;
0.105951;-0.00604733;0.0453403;
0.105961;-0.0048363;0.0362209;
0.105971;-0.00360618;0.0269582;
0.105981;-0.00236184;0.0175889;
0.105991;-0.00110817;0.00814992;
0.106001;0.000149874;-0.00132129;
0.106011;0.00140732;-0.0107873;
0.106021;0.00265922;-0.0202107;
0.106031;0.00390062;-0.0295543;
0.106041;0.00512663;-0.038781;
0.106051;0.0063324;-0.0478544;
0.106061;0.00751319;-0.0567387;
0.106071;0.00866432;-0.0653987;
0.106081;0.00978126;-0.0738002;
0.106091;0.0108596;-0.0819101;
0.106101;0.0118951;-0.0896964;
0.106111;0.0128836;-0.0971284;
0.106121;0.0138213;-0.104177;
0.106131;0.0147044;-0.110814;
0.106141;0.0155295;-0.117013;
0.106151;0.0162934;-0.12275;
0.106161;0.0169929;-0.128003;
0.106171;0.0176253;-0.132751;
0.106181;0.0181882;-0.136975;
0.106191;0.0186794;-0.140658;
0.106201;0.0190968;-0.143787;
0.106211;0.0194388;-0.146349;
0.106221;0.0197041;-0.148333;
0.106231;0.0198917;-0.149732;
0.106241;0.0200007;-0.150541;
0.106251;0.0200308;-0.150756;
0.106261;0.0199819;-0.150376;
0.106271;0.0198541;-0.149404;
0.106281;0.0196479;-0.147842;
0.106291;0.0193642;-0.145698;
0.106301;0.0190041;-0.142978;
0.106311;0.018569;-0.139695;
0.106321;0.0180606;-0.135861;
0.106331;0.0174809;-0.13149;
0.106341;0.0168323;-0.126601;
0.106351;0.0161172;-0.121212;
0.106361;0.0153385;-0.115344;
0.106371;0.0144992;-0.109022;
0.106381;0.0136028;-0.102268;
0.106391;0.0126526;-0.095111;
0.106401;0.0116526;-0.0875781;
0.106411;0.0106065;-0.0796992;
0.106421;0.00951858;-0.0715054;
0.106431;0.00839309;-0.0630291;
0.106441;0.00723448;-0.0543036;
0.106451;0.00604732;-0.0453635;
0.106461;0.00483629;-0.0362441;
0.106471;0.00360618;-0.0269814;
0.106481;0.00236183;-0.0176121;
0.106491;0.00110816;-0.00817316;
0.106501;-0.000149881;0.00129806;
0.106511;-0.00140733;0.0107641;
0.106521;-0.00265923;0.0201875;
0.106531;-0.00390063;0.0295311;
0.106541;-0.00512663;0.0387578;
0.106551;-0.00633241;0.0478312;
0.106561;-0.00751319;0.0567155;
0.106571;-0.00866432;0.0653755;
0.106581;-0.00978126;0.073777;
0.106591;-0.0108596;0.0818869;
0.106601;-0.0118951;0.0896732;
0.106611;-0.0128836;0.0971052;
0.106621;-0.0138213;0.104153;
0.106631;-0.0147044;0.11079;
0.106641;-0.0155296;0.11699;
0.106651;-0.0162934;0.122727;
0.106661;-0.0169929;0.12798;
0.106671;-0.0176253;0.132728;
0.106681;-0.0181882;0.136952;
0.106691;-0.0186794;0.140635;
0.106701;-0.0190968;0.143764;
0.106711;-0.0194388;0.146325;
0.106721;-0.0197041;0.14831;
0.106731;-0.0198917;0.149709;
0.106741;-0.0200007;0.150518;
0.106751;-0.0200308;0.150733;
0.106761;-0.0199819;0.150353;
0.106771;-0.0198541;0.149381;
0.106781;-0.0196479;0.147819;
0.106791;-0.0193642;0.145675;
0.106801;-0.0190041;0.142955;
0.106811;-0.018569;0.139672;
0.106821;-0.0180606;0.135838;
0.106831;-0.0174809;0.131467;
0.106841;-0.0168323;0.126578;
0.106851;-0.0161172;0.121189;
0.106861;-0.0153385;0.115321;
0.106871;-0.0144992;0.108998;
0.106881;-0.0136028;0.102245;
0.106891;-0.0126526;0.0950879;
0.106901;-0.0116526;0.087555;
0.106911;-0.0106065;0.0796761;
0.106921;-0.00951859;0.0714823;
0.106931;-0.0083931;0.0630059;
0.106941;-0.00723449;0.0542805;
0.106951;-0.00604733;0.0453404;
0.106961;-0.0048363;0.036221;
0.106971;-0.00360618;0.0269583;
0.106981;-0.00236184;0.017589;
0.106991;-0.00110817;0.00815001;
0.107001;0.000149874;-0.0013212;
0.107011;0.00140732;-0.0107872;
0.107021;0.00265922;-0.0202107;
0.107031;0.00390062;-0.0295542;
0.107041;0.00512663;-0.0387809;
0.107051;0.0063324;-0.0478543;
0.107061;0.00751319;-0.0567386;
0.107071;0.00866432;-0.0653986;
0.107081;0.00978126;-0.0738001;
0.107091;0.0108596;-0.08191;
0.107101;0.0118951;-0.0896963;
0.107111;0.0128836;-0.0971283;
0.107121;0.0138213;-0.104177;
0.107131;0.0147044;-0.110814;
0.107141;0.0155295;-0.117013;
0.107151;0.0162934;-0.12275;
0.107161;0.0169929;-0.128003;
0.107171;0.0176253;-0.132751;
0.107181;0.0181882;-0.136975;
0.107191;0.0186794;-0.140658;
0.107201;0.0190968;-0.143787;
0.107211;0.0194388;-0.146348;
0.107221;0.0197041;-0.148333;
0.107231;0.0198917;-0.149732;
0.107241;0.0200007;-0.150541;
0.107251;0.0200308;-0.150756;
0.107261;0.0199819;-0.150376;
0.107271;0.0198541;-0.149404;
0.107281;0.0196479;-0.147842;
0.107291;0.0193642;-0.145698;
0.107301;0.0190041;-0.142978;
0.107311;0.018569;-0.139695;
0.107321;0.0180606;-0.135861;
0.107331;0.0174809;-0.13149;
0.107341;0.0168323;-0.126601;
0.107351;0.0161172;-0.121212;
0.107361;0.0153385;-0.115344;
0.107371;0.0144992;-0.109021;
0.107381;0.0136028;-0.102268;
0.107391;0.0126526;-0.0951109;
0.107401;0.0116526;-0.087578;
0.107411;0.0106065;-0.0796991;
0.107421;0.00951858;-0.0715054;
0.107431;0.00839309;-0.063029;
0.107441;0.00723448;-0.0543035;
0.107451;0.00604732;-0.0453634;
0.107461;0.00483629;-0.036244;
0.107471;0.00360618;-0.0269813;
0.107481;0.00236183;-0.017612;
0.107491;0.00110816;-0.00817307;
0.107501;-0.000149881;0.00129815;
0.107511;-0.00140733;0.0107642;
0.107521;-0.00265923;0.0201876;
0.107531;-0.00390063;0.0295311;
0.107541;-0.00512663;0.0387579;
0.107551;-0.00633241;0.0478313;
0.107561;-0.00751319;0.0567155;
0.107571;-0.00866432;0.0653756;
0.107581;-0.00978126;0.0737771;
0.107591;-0.0108596;0.081887;
0.107601;-0.0118951;0.0896733;
0.107611;-0.0128836;0.0971053;
0.107621;-0.0138213;0.104154;
0.107631;-0.0147044;0.11079;
0.107641;-0.0155296;0.11699;
0.107651;-0.0162934;0.122727;
0.107661;-0.0169929;0.12798;
0.107671;-0.0176253;0.132728;
0.107681;-0.0181882;0.136952;
0.107691;-0.0186794;0.140635;
0.107701;-0.0190968;0.143764;
0.107711;-0.0194388;0.146325;
0.107721;-0.0197041;0.14831;
0.107731;-0.0198917;0.149709;
0.107741;-0.0200007;0.150518;
0.107751;-0.0200308;0.150733;
0.107761;-0.0199819;0.150353;
0.107771;-0.0198541;0.149381;
0.107781;-0.0196479;0.147819;
0.107791;-0.0193642;0.145675;
0.107801;-0.0190041;0.142955;
0.107811;-0.018569;0.139672;
0.107821;-0.0180606;0.135838;
0.107831;-0.0174809;0.131467;
0.107841;-0.0168323;0.126578;
0.107851;-0.0161172;0.121189;
0.107861;-0.0153385;0.115321;
0.107871;-0.0144992;0.108998;
0.107881;-0.0136028;0.102245;
0.107891;-0.0126526;0.095088;
0.107901;-0.0116526;0.0875551;
0.107911;-0.0106065;0.0796762;
0.107921;-0.00951859;0.0714824;
0.107931;-0.0083931;0.063006;
0.107941;-0.00723449;0.0542806;
0.107951;-0.00604733;0.0453405;
0.107961;-0.0048363;0.0362211;
0.107971;-0.00360618;0.0269584;
0.107981;-0.00236184;0.017589;
0.107991;-0.00110817;0.0081501;
0.108001;0.000149874;-0.00132111;
0.108011;0.00140732;-0.0107871;
0.108021;0.00265922;-0.0202106;
0.108031;0.00390062;-0.0295541;
0.108041;0.00512663;-0.0387808;
0.108051;0.0063324;-0.0478542;
0.108061;0.00751319;-0.0567385;
0.108071;0.00866432;-0.0653985;
0.108081;0.00978126;-0.0738;
0.108091;0.0108596;-0.08191;
0.108101;0.0118951;-0.0896962;
0.108111;0.0128836;-0.0971282;
0.108121;0.0138213;-0.104177;
0.108131;0.0147044;-0.110813;
0.108141;0.0155295;-0.117013;
0.108151;0.0162934;-0.12275;
0.108161;0.0169929;-0.128003;
0.108171;0.0176253;-0.132751;
0.108181;0.0181882;-0.136975;
0.108191;0.0186794;-0.140658;
0.108201;0.0190968;-0.143787;
0.108211;0.0194388;-0.146348;
0.108221;0.0197041;-0.148333;
0.108231;0.0198917;-0.149732;
0.108241;0.0200007;-0.150541;
0.108251;0.0200308;-0.150756;
0.108261;0.0199819;-0.150376;
0.108271;0.0198541;-0.149404;
0.108281;0.0196479;-0.147842;
0.108291;0.0193642;-0.145698;
0.108301;0.0190041;-0.142978;
0.108311;0.018569;-0.139695;
0.108321;0.0180606;-0.13586;
0.108331;0.0174809;-0.13149;
0.108341;0.0168323;-0.126601;
0.108351;0.0161172;-0.121212;
0.108361;0.0153385;-0.115344;
0.108371;0.0144992;-0.109021;
0.108381;0.0136028;-0.102268;
0.108391;0.0126526;-0.0951108;
0.108401;0.0116526;-0.0875779;
0.108411;0.0106065;-0.0796991;
0.108421;0.00951858;-0.0715053;
0.108431;0.00839309;-0.0630289;
0.108441;0.00723448;-0.0543034;
0.108451;0.00604732;-0.0453633;
0.108461;0.00483629;-0.0362439;
0.108471;0.00360618;-0.0269813;
0.108481;0.00236183;-0.0176119;
0.108491;0.00110816;-0.00817298;
0.108501;-0.000149881;0.00129824;
0.108511;-0.00140733;0.0107643;
0.108521;-0.00265923;0.0201877;
0.108531;-0.00390063;0.0295312;
0.108541;-0.00512663;0.038758;
0.108551;-0.00633241;0.0478314;
0.108561;-0.00751319;0.0567156;
0.108571;-0.00866432;0.0653756;
0.108581;-0.00978126;0.0737772;
0.108591;-0.0108596;0.0818871;
0.108601;-0.0118951;0.0896734;
0.108611;-0.0128836;0.0971053;
0.108621;-0.0138213;0.104154;
0.108631;-0.0147044;0.110791;
0.108641;-0.0155296;0.11699;
0.108651;-0.0162934;0.122727;
0.108661;-0.0169929;0.12798;
0.108671;-0.0176253;0.132728;
0.108681;-0.0181882;0.136952;
0.108691;-0.0186794;0.140635;
0.108701;-0.0190968;0.143764;
0.108711;-0.0194388;0.146326;
0.108721;-0.0197041;0.14831;
0.108731;-0.0198917;0.149709;
0.108741;-0.0200007;0.150518;
0.108751;-0.0200308;0.150733;
0.108761;-0.0199819;0.150353;
0.108771;-0.0198541;0.149381;
0.108781;-0.0196479;0.147819;
0.108791;-0.0193642;0.145675;
0.108801;-0.0190041;0.142955;
0.108811;-0.018569;0.139672;
0.108821;-0.0180606;0.135838;
0.108831;-0.0174809;0.131467;
0.108841;-0.0168323;0.126578;
0.108851;-0.0161172;0.121189;
0.108861;-0.0153385;0.115321;
0.108871;-0.0144992;0.108999;
0.108881;-0.0136028;0.102245;
0.108891;-0.0126526;0.095088;
0.108901;-0.0116526;0.0875551;
0.108911;-0.0106065;0.0796763;
0.108921;-0.00951859;0.0714825;
0.108931;-0.0083931;0.0630061;
0.108941;-0.00723449;0.0542807;
0.108951;-0.00604733;0.0453406;
0.108961;-0.0048363;0.0362211;
0.108971;-0.00360618;0.0269585;
0.108981;-0.00236184;0.0175891;
0.108991;-0.00110817;0.00815019;
0.109001;0.000149874;-0.00132102;
0.109011;0.00140732;-0.0107871;
0.109021;0.00265922;-0.0202105;
0.109031;0.00390062;-0.029554;
0.109041;0.00512663;-0.0387807;
0.109051;0.0063324;-0.0478541;
0.109061;0.00751319;-0.0567384;
0.109071;0.00866432;-0.0653984;
0.109081;0.00978126;-0.0737999;
0.109091;0.0108596;-0.0819099;
0.109101;0.0118951;-0.0896962;
0.109111;0.0128836;-0.0971281;
0.109121;0.0138213;-0.104176;
0.109131;0.0147044;-0.110813;
0.109141;0.0155295;-0.117013;
0.109151;0.0162934;-0.12275;
0.109161;0.0169929;-0.128003;
0.109171;0.0176253;-0.132751;
0.109181;0.0181882;-0.136975;
0.109191;0.0186794;-0.140658;
0.109201;0.0190968;-0.143787;
0.109211;0.0194388;-0.146348;
0.109221;0.0197041;-0.148332;
0.109231;0.0198917;-0.149732;
0.109241;0.0200007;-0.15054;
0.109251;0.0200308;-0.150756;
0.109261;0.0199819;-0.150376;
0.109271;0.0198541;-0.149404;
0.109281;0.0196479;-0.147842;
0.109291;0.0193642;-0.145697;
0.109301;0.0190041;-0.142978;
0.109311;0.018569;-0.139695;
0.109321;0.0180606;-0.13586;
0.109331;0.0174809;-0.13149;
0.109341;0.0168323;-0.126601;
0.109351;0.0161172;-0.121212;
0.109361;0.0153385;-0.115344;
0.109371;0.0144992;-0.109021;
0.109381;0.0136028;-0.102268;
0.109391;0.0126526;-0.0951107;
0.109401;0.0116526;-0.0875778;
0.109411;0.0106065;-0.079699;
0.109421;0.00951858;-0.0715052;
0.109431;0.00839309;-0.0630288;
0.109441;0.00723448;-0.0543034;
0.109451;0.00604732;-0.0453633;
0.109461;0.00483629;-0.0362438;
0.109471;0.00360618;-0.0269812;
0.109481;0.00236183;-0.0176118;
0.109491;0.00110816;-0.00817289;
0.109501;-0.00014988;0.00129833;
0.109511;-0.00140733;0.0107644;
0.109521;-0.00265923;0.0201878;
0.109531;-0.00390063;0.0295313;
0.109541;-0.00512663;0.038758;
0.109551;-0.00633241;0.0478315;
0.109561;-0.00751319;0.0567157;
0.109571;-0.00866432;0.0653757;
0.109581;-0.00978126;0.0737773;
0.109591;-0.0108596;0.0818872;
0.109601;-0.0118951;0.0896735;
0.109611;-0.0128836;0.0971054;
0.109621;-0.0138213;0.104154;
0.109631;-0.0147044;0.110791;
0.109641;-0.0155296;0.11699;
0.109651;-0.0162934;0.122727;
0.109661;-0.0169929;0.12798;
0.109671;-0.0176253;0.132728;
0.109681;-0.0181882;0.136952;
0.109691;-0.0186794;0.140636;
0.109701;-0.0190968;0.143764;
0.109711;-0.0194388;0.146326;
0.109721;-0.0197041;0.14831;
0.109731;-0.0198917;0.149709;
0.109741;-0.0200007;0.150518;
0.109751;-0.0200308;0.150733;
0.109761;-0.0199819;0.150354;
0.109771;-0.0198541;0.149381;
0.109781;-0.0196479;0.14782;
0.109791;-0.0193642;0.145675;
0.109801;-0.0190041;0.142956;
0.109811;-0.018569;0.139672;
0.109821;-0.0180606;0.135838;
0.109831;-0.0174809;0.131467;
0.109841;-0.0168323;0.126578;
0.109851;-0.0161172;0.121189;
0.109861;-0.0153385;0.115322;
0.109871;-0.0144992;0.108999;
0.109881;-0.0136028;0.102245;
0.109891;-0.0126526;0.0950881;
0.109901;-0.0116526;0.0875552;
0.109911;-0.0106065;0.0796763;
0.109921;-0.00951859;0.0714826;
0.109931;-0.0083931;0.0630062;
0.109941;-0.00723449;0.0542807;
0.109951;-0.00604733;0.0453406;
0.109961;-0.0048363;0.0362212;
0.109971;-0.00360618;0.0269586;
0.109981;-0.00236184;0.0175892;
0.109991;-0.00110817;0.00815028;
0.110001;0.000149874;-0.00132093;
0.110011;0.00140732;-0.010787;
0.110021;0.00265922;-0.0202104;
0.110031;0.00390062;-0.0295539;
0.110041;0.00512663;-0.0387806;
0.110051;0.0063324;-0.0478541;
0.110061;0.00751319;-0.0567383;
0.110071;0.00866432;-0.0653983;
0.110081;0.00978126;-0.0737999;
0.110091;0.0108596;-0.0819098;
0.110101;0.0118951;-0.0896961;
0.110111;0.0128836;-0.097128;
0.110121;0.0138213;-0.104176;
0.110131;0.0147044;-0.110813;
0.110141;0.0155295;-0.117013;
0.110151;0.0162934;-0.12275;
0.110161;0.0169929;-0.128003;
0.110171;0.0176253;-0.132751;
0.110181;0.0181882;-0.136975;
0.110191;0.0186794;-0.140658;
0.110201;0.0190968;-0.143787;
0.110211;0.0194388;-0.146348;
0.110221;0.0197041;-0.148332;
0.110231;0.0198917;-0.149732;
0.110241;0.0200007;-0.15054;
0.110251;0.0200308;-0.150756;
0.110261;0.0199819;-0.150376;
0.110271;0.0198541;-0.149404;
0.110281;0.0196479;-0.147842;
0.110291;0.0193642;-0.145697;
0.110301;0.0190041;-0.142978;
0.110311;0.018569;-0.139695;
0.110321;0.0180606;-0.13586;
0.110331;0.0174809;-0.13149;
0.110341;0.0168323;-0.1266;
0.110351;0.0161172;-0.121211;
0.110361;0.0153385;-0.115344;
0.110371;0.0144992;-0.109021;
0.110381;0.0136028;-0.102268;
0.110391;0.0126526;-0.0951107;
0.110401;0.0116526;-0.0875778;
0.110411;0.0106065;-0.0796989;
0.110421;0.00951858;-0.0715051;
0.110431;0.00839309;-0.0630287;
0.110441;0.00723448;-0.0543033;
0.110451;0.00604732;-0.0453632;
0.110461;0.00483629;-0.0362438;
0.110471;0.00360618;-0.0269811;
0.110481;0.00236183;-0.0176117;
0.110491;0.00110816;-0.0081728;
0.110501;-0.00014988;0.00129842;
0.110511;-0.00140733;0.0107645;
0.110521;-0.00265923;0.0201879;
0.110531;-0.00390063;0.0295314;
0.110541;-0.00512663;0.0387581;
0.110551;-0.00633241;0.0478315;
0.110561;-0.00751319;0.0567158;
0.110571;-0.00866432;0.0653758;
0.110581;-0.00978126;0.0737774;
0.110591;-0.0108596;0.0818873;
0.110601;-0.0118951;0.0896736;
0.110611;-0.0128836;0.0971055;
0.110621;-0.0138213;0.104154;
0.110631;-0.0147044;0.110791;
0.110641;-0.0155296;0.11699;
0.110651;-0.0162934;0.122728;
0.110661;-0.0169929;0.12798;
0.110671;-0.0176253;0.132728;
0.110681;-0.0181882;0.136952;
0.110691;-0.0186794;0.140636;
0.110701;-0.0190968;0.143764;
0.110711;-0.0194388;0.146326;
0.110721;-0.0197041;0.14831;
0.110731;-0.0198917;0.149709;
0.110741;-0.0200007;0.150518;
0.110751;-0.0200308;0.150733;
0.110761;-0.0199819;0.150354;
0.110771;-0.0198541;0.149381;
0.110781;-0.0196479;0.14782;
0.110791;-0.0193642;0.145675;
0.110801;-0.0190041;0.142956;
0.110811;-0.018569;0.139672;
0.110821;-0.0180606;0.135838;
0.110831;-0.0174809;0.131467;
0.110841;-0.0168323;0.126578;
0.110851;-0.0161172;0.121189;
0.110861;-0.0153385;0.115322;
0.110871;-0.0144992;0.108999;
0.110881;-0.0136028;0.102245;
0.110891;-0.0126526;0.0950882;
0.110901;-0.0116526;0.0875553;
0.110911;-0.0106065;0.0796764;
0.110921;-0.00951859;0.0714826;
0.110931;-0.0083931;0.0630063;
0.110941;-0.00723449;0.0542808;
0.110951;-0.00604733;0.0453407;
0.110961;-0.0048363;0.0362213;
0.110971;-0.00360618;0.0269586;
0.110981;-0.00236184;0.0175893;
0.110991;-0.00110817;0.00815037;
0.111001;0.000149874;-0.00132084;
0.111011;0.00140732;-0.0107869;
0.111021;0.00265922;-0.0202103;
0.111031;0.00390062;-0.0295538;
0.111041;0.00512663;-0.0387806;
0.111051;0.0063324;-0.047854;
0.111061;0.00751319;-0.0567382;
0.111071;0.00866432;-0.0653982;
0.111081;0.00978126;-0.0737998;
0.111091;0.0108596;-0.0819097;
0.111101;0.0118951;-0.089696;
0.111111;0.0128836;-0.0971279;
0.111121;0.0138213;-0.104176;
0.111131;0.0147044;-0.110813;
0.111141;0.0155295;-0.117013;
0.111151;0.0162934;-0.12275;
0.111161;0.0169929;-0.128003;
0.111171;0.0176253;-0.132751;
0.111181;0.0181882;-0.136974;
0.111191;0.0186794;-0.140658;
0.111201;0.0190968;-0.143787;
0.111211;0.0194388;-0.146348;
0.111221;0.0197041;-0.148332;
0.111231;0.0198917;-0.149732;
0.111241;0.0200007;-0.15054;
0.111251;0.0200308;-0.150755;
0.111261;0.0199819;-0.150376;
0.111271;0.0198541;-0.149404;
0.111281;0.0196479;-0.147842;
0.111291;0.0193642;-0.145697;
0.111301;0.0190041;-0.142978;
0.111311;0.018569;-0.139695;
0.111321;0.0180606;-0.13586;
0.111331;0.0174809;-0.13149;
0.111341;0.0168323;-0.1266;
0.111351;0.0161172;-0.121211;
0.111361;0.0153385;-0.115344;
0.111371;0.0144992;-0.109021;
0.111381;0.0136028;-0.102268;
0.111391;0.0126526;-0.0951106;
0.111401;0.0116526;-0.0875777;
0.111411;0.0106065;-0.0796988;
0.111421;0.00951858;-0.071505;
0.111431;0.00839309;-0.0630286;
0.111441;0.00723448;-0.0543032;
0.111451;0.00604732;-0.0453631;
0.111461;0.00483629;-0.0362437;
0.111471;0.00360618;-0.026981;
0.111481;0.00236183;-0.0176117;
0.111491;0.00110816;-0.00817271;
0.111501;-0.00014988;0.0012985;
0.111511;-0.00140733;0.0107645;
0.111521;-0.00265923;0.020188;
0.111531;-0.00390063;0.0295315;
0.111541;-0.00512663;0.0387582;
0.111551;-0.00633241;0.0478316;
0.111561;-0.00751319;0.0567159;
0.111571;-0.00866432;0.0653759;
0.111581;-0.00978126;0.0737774;
0.111591;-0.0108596;0.0818874;
0.111601;-0.0118951;0.0896737;
0.111611;-0.0128836;0.0971056;
0.111621;-0.0138213;0.104154;
0.111631;-0.0147044;0.110791;
0.111641;-0.0155296;0.11699;
0.111651;-0.0162934;0.122728;
0.111661;-0.0169929;0.127981;
0.111671;-0.0176253;0.132728;
0.111681;-0.0181882;0.136952;
0.111691;-0.0186794;0.140636;
0.111701;-0.0190968;0.143764;
0.111711;-0.0194388;0.146326;
0.111721;-0.0197041;0.14831;
0.111731;-0.0198917;0.149709;
0.111741;-0.0200007;0.150518;
0.111751;-0.0200308;0.150733;
0.111761;-0.0199819;0.150354;
0.111771;-0.0198541;0.149381;
0.111781;-0.0196479;0.14782;
0.111791;-0.0193642;0.145675;
0.111801;-0.0190041;0.142956;
0.111811;-0.018569;0.139672;
0.111821;-0.0180606;0.135838;
0.111831;-0.0174809;0.131467;
0.111841;-0.0168323;0.126578;
0.111851;-0.0161172;0.121189;
0.111861;-0.0153385;0.115322;
0.111871;-0.0144992;0.108999;
0.111881;-0.0136028;0.102246;
0.111891;-0.0126526;0.0950883;
0.111901;-0.0116526;0.0875554;
0.111911;-0.0106065;0.0796765;
0.111921;-0.00951859;0.0714827;
0.111931;-0.0083931;0.0630064;
0.111941;-0.00723449;0.0542809;
0.111951;-0.00604732;0.0453408;
0.111961;-0.0048363;0.0362214;
0.111971;-0.00360618;0.0269587;
0.111981;-0.00236183;0.0175894;
0.111991;-0.00110817;0.00815046;
0.112001;0.000149874;-0.00132076;
0.112011;0.00140732;-0.0107868;
0.112021;0.00265922;-0.0202102;
0.112031;0.00390062;-0.0295537;
0.112041;0.00512663;-0.0387805;
0.112051;0.0063324;-0.0478539;
0.112061;0.00751319;-0.0567381;
0.112071;0.00866432;-0.0653981;
0.112081;0.00978126;-0.0737997;
0.112091;0.0108596;-0.0819096;
0.112101;0.0118951;-0.0896959;
0.112111;0.0128836;-0.0971278;
0.112121;0.0138213;-0.104176;
0.112131;0.0147044;-0.110813;
0.112141;0.0155295;-0.117012;
0.112151;0.0162934;-0.12275;
0.112161;0.0169929;-0.128003;
0.112171;0.0176253;-0.13275;
0.112181;0.0181882;-0.136974;
0.112191;0.0186794;-0.140658;
0.112201;0.0190968;-0.143787;
0.112211;0.0194388;-0.146348;
0.112221;0.0197041;-0.148332;
0.112231;0.0198917;-0.149731;
0.112241;0.0200007;-0.15054;
0.112251;0.0200308;-0.150755;
0.112261;0.0199819;-0.150376;
0.112271;0.0198541;-0.149404;
0.112281;0.0196479;-0.147842;
0.112291;0.0193642;-0.145697;
0.112301;0.0190041;-0.142978;
0.112311;0.018569;-0.139695;
0.112321;0.0180606;-0.13586;
0.112331;0.0174809;-0.13149;
0.112341;0.0168323;-0.1266;
0.112351;0.0161172;-0.121211;
0.112361;0.0153385;-0.115344;
0.112371;0.0144992;-0.109021;
0.112381;0.0136028;-0.102268;
0.112391;0.0126526;-0.0951105;
0.112401;0.0116526;-0.0875776;
0.112411;0.0106065;-0.0796987;
0.112421;0.00951858;-0.0715049;
0.112431;0.00839309;-0.0630286;
0.112441;0.00723448;-0.0543031;
0.112451;0.00604732;-0.045363;
0.112461;0.00483629;-0.0362436;
0.112471;0.00360618;-0.0269809;
0.112481;0.00236183;-0.0176116;
0.112491;0.00110816;-0.00817263;
0.112501;-0.00014988;0.00129859;
0.112511;-0.00140733;0.0107646;
0.112521;-0.00265923;0.020188;
0.112531;-0.00390063;0.0295316;
0.112541;-0.00512663;0.0387583;
0.112551;-0.00633241;0.0478317;
0.112561;-0.00751319;0.056716;
0.112571;-0.00866432;0.065376;
0.112581;-0.00978126;0.0737775;
0.112591;-0.0108596;0.0818875;
0.112601;-0.0118951;0.0896737;
0.112611;-0.0128836;0.0971057;
0.112621;-0.0138213;0.104154;
0.112631;-0.0147044;0.110791;
0.112641;-0.0155296;0.11699;
0.112651;-0.0162934;0.122728;
0.112661;-0.0169929;0.127981;
0.112671;-0.0176253;0.132728;
0.112681;-0.0181882;0.136952;
0.112691;-0.0186794;0.140636;
0.112701;-0.0190968;0.143764;
0.112711;-0.0194388;0.146326;
0.112721;-0.0197041;0.14831;
0.112731;-0.0198917;0.149709;
0.112741;-0.0200007;0.150518;
0.112751;-0.0200308;0.150733;
0.112761;-0.0199819;0.150354;
0.112771;-0.0198541;0.149381;
0.112781;-0.0196479;0.14782;
0.112791;-0.0193642;0.145675;
0.112801;-0.0190041;0.142956;
0.112811;-0.018569;0.139672;
0.112821;-0.0180606;0.135838;
0.112831;-0.0174809;0.131468;
0.112841;-0.0168323;0.126578;
0.112851;-0.0161172;0.121189;
0.112861;-0.0153385;0.115322;
0.112871;-0.0144992;0.108999;
0.112881;-0.0136028;0.102246;
0.112891;-0.0126526;0.0950884;
0.112901;-0.0116526;0.0875555;
0.112911;-0.0106065;0.0796766;
0.112921;-0.00951859;0.0714828;
0.112931;-0.0083931;0.0630065;
0.112941;-0.00723449;0.054281;
0.112951;-0.00604732;0.0453409;
0.112961;-0.0048363;0.0362215;
0.112971;-0.00360618;0.0269588;
0.112981;-0.00236183;0.0175895;
0.112991;-0.00110817;0.00815054;
0.113001;0.000149874;-0.00132067;
0.113011;0.00140732;-0.0107867;
0.113021;0.00265922;-0.0202101;
0.113031;0.00390062;-0.0295537;
0.113041;0.00512663;-0.0387804;
0.113051;0.0063324;-0.0478538;
0.113061;0.00751319;-0.0567381;
0.113071;0.00866432;-0.0653981;
0.113081;0.00978126;-0.0737996;
0.113091;0.0108596;-0.0819095;
0.113101;0.0118951;-0.0896958;
0.113111;0.0128836;-0.0971277;
0.113121;0.0138213;-0.104176;
0.113131;0.0147044;-0.110813;
0.113141;0.0155295;-0.117012;
0.113151;0.0162934;-0.12275;
0.113161;0.0169929;-0.128003;
0.113171;0.0176253;-0.13275;
0.113181;0.0181882;-0.136974;
0.113191;0.0186794;-0.140658;
0.113201;0.0190968;-0.143786;
0.113211;0.0194388;-0.146348;
0.113221;0.0197041;-0.148332;
0.113231;0.0198917;-0.149731;
0.113241;0.0200007;-0.15054;
0.113251;0.0200308;-0.150755;
0.113261;0.0199819;-0.150376;
0.113271;0.0198541;-0.149403;
0.113281;0.0196479;-0.147842;
0.113291;0.0193642;-0.145697;
0.113301;0.0190041;-0.142978;
0.113311;0.018569;-0.139694;
0.113321;0.0180606;-0.13586;
0.113331;0.0174809;-0.13149;
0.113341;0.0168323;-0.1266;
0.113351;0.0161172;-0.121211;
0.113361;0.0153385;-0.115344;
0.113371;0.0144992;-0.109021;
0.113381;0.0136028;-0.102268;
0.113391;0.0126526;-0.0951104;
0.113401;0.0116526;-0.0875775;
0.113411;0.0106065;-0.0796986;
0.113421;0.00951858;-0.0715048;
0.113431;0.00839309;-0.0630285;
0.113441;0.00723448;-0.054303;
0.113451;0.00604732;-0.0453629;
0.113461;0.00483629;-0.0362435;
0.113471;0.00360618;-0.0269808;
0.113481;0.00236183;-0.0176115;
0.113491;0.00110816;-0.00817254;
0.113501;-0.00014988;0.00129868;
0.113511;-0.00140733;0.0107647;
0.113521;-0.00265923;0.0201881;
0.113531;-0.00390063;0.0295317;
0.113541;-0.00512663;0.0387584;
0.113551;-0.00633241;0.0478318;
0.113561;-0.00751319;0.0567161;
0.113571;-0.00866432;0.0653761;
0.113581;-0.00978126;0.0737776;
0.113591;-0.0108596;0.0818875;
0.113601;-0.0118951;0.0896738;
0.113611;-0.0128836;0.0971058;
0.113621;-0.0138213;0.104154;
0.113631;-0.0147044;0.110791;
0.113641;-0.0155296;0.11699;
0.113651;-0.0162934;0.122728;
0.113661;-0.0169929;0.127981;
0.113671;-0.0176253;0.132728;
0.113681;-0.0181882;0.136952;
0.113691;-0.0186794;0.140636;
0.113701;-0.0190968;0.143764;
0.113711;-0.0194388;0.146326;
0.113721;-0.0197041;0.14831;
0.113731;-0.0198917;0.149709;
0.113741;-0.0200007;0.150518;
0.113751;-0.0200308;0.150733;
0.113761;-0.0199819;0.150354;
0.113771;-0.0198541;0.149382;
0.113781;-0.0196479;0.14782;
0.113791;-0.0193642;0.145675;
0.113801;-0.0190041;0.142956;
0.113811;-0.018569;0.139673;
0.113821;-0.0180606;0.135838;
0.113831;-0.0174809;0.131468;
0.113841;-0.0168323;0.126578;
0.113851;-0.0161172;0.121189;
0.113861;-0.0153385;0.115322;
0.113871;-0.0144992;0.108999;
0.113881;-0.0136028;0.102246;
0.113891;-0.0126526;0.0950885;
0.113901;-0.0116526;0.0875556;
0.113911;-0.0106065;0.0796767;
0.113921;-0.00951859;0.0714829;
0.113931;-0.0083931;0.0630065;
0.113941;-0.00723449;0.0542811;
0.113951;-0.00604732;0.045341;
0.113961;-0.0048363;0.0362216;
0.113971;-0.00360618;0.0269589;
0.113981;-0.00236183;0.0175896;
0.113991;-0.00110817;0.00815063;
0.114001;0.000149874;-0.00132058;
0.114011;0.00140732;-0.0107866;
0.114021;0.00265922;-0.02021;
0.114031;0.00390062;-0.0295536;
0.114041;0.00512663;-0.0387803;
0.114051;0.0063324;-0.0478537;
0.114061;0.00751319;-0.056738;
0.114071;0.00866432;-0.065398;
0.114081;0.00978126;-0.0737995;
0.114091;0.0108596;-0.0819094;
0.114101;0.0118951;-0.0896957;
0.114111;0.0128836;-0.0971277;
0.114121;0.0138213;-0.104176;
0.114131;0.0147044;-0.110813;
0.114141;0.0155295;-0.117012;
0.114151;0.0162934;-0.12275;
0.114161;0.0169929;-0.128003;
0.114171;0.0176253;-0.13275;
0.114181;0.0181882;-0.136974;
0.114191;0.0186794;-0.140658;
0.114201;0.0190968;-0.143786;
0.114211;0.0194388;-0.146348;
0.114221;0.0197041;-0.148332;
0.114231;0.0198917;-0.149731;
0.114241;0.0200007;-0.15054;
0.114251;0.0200308;-0.150755;
0.114261;0.0199819;-0.150376;
0.114271;0.0198541;-0.149403;
0.114281;0.0196479;-0.147842;
0.114291;0.0193642;-0.145697;
0.114301;0.0190041;-0.142978;
0.114311;0.018569;-0.139694;
0.114321;0.0180606;-0.13586;
0.114331;0.0174809;-0.131489;
0.114341;0.0168323;-0.1266;
0.114351;0.0161172;-0.121211;
0.114361;0.0153385;-0.115344;
0.114371;0.0144992;-0.109021;
0.114381;0.0136028;-0.102268;
0.114391;0.0126526;-0.0951103;
0.114401;0.0116526;-0.0875774;
0.114411;0.0106065;-0.0796985;
0.114421;0.00951858;-0.0715047;
0.114431;0.00839309;-0.0630284;
0.114441;0.00723448;-0.0543029;
0.114451;0.00604732;-0.0453628;
0.114461;0.00483629;-0.0362434;
0.114471;0.00360618;-0.0269807;
0.114481;0.00236183;-0.0176114;
0.114491;0.00110816;-0.00817245;
0.114501;-0.00014988;0.00129876;
0.114511;-0.00140733;0.0107648;
0.114521;-0.00265923;0.0201882;
0.114531;-0.00390063;0.0295318;
0.114541;-0.00512663;0.0387585;
0.114551;-0.00633241;0.0478319;
0.114561;-0.00751319;0.0567162;
0.114571;-0.00866432;0.0653762;
0.114581;-0.00978126;0.0737777;
0.114591;-0.0108596;0.0818876;
0.114601;-0.0118951;0.0896739;
0.114611;-0.0128836;0.0971059;
0.114621;-0.0138213;0.104154;
0.114631;-0.0147044;0.110791;
0.114641;-0.0155295;0.11699;
0.114651;-0.0162934;0.122728;
0.114661;-0.0169929;0.127981;
0.114671;-0.0176253;0.132729;
0.114681;-0.0181882;0.136952;
0.114691;-0.0186794;0.140636;
0.114701;-0.0190968;0.143765;
0.114711;-0.0194388;0.146326;
0.114721;-0.0197041;0.14831;
0.114731;-0.0198917;0.14971;
0.114741;-0.0200007;0.150518;
0.114751;-0.0200308;0.150733;
0.114761;-0.0199819;0.150354;
0.114771;-0.0198541;0.149382;
0.114781;-0.0196479;0.14782;
0.114791;-0.0193642;0.145675;
0.114801;-0.0190041;0.142956;
0.114811;-0.018569;0.139673;
0.114821;-0.0180606;0.135838;
0.114831;-0.0174809;0.131468;
0.114841;-0.0168323;0.126578;
0.114851;-0.0161172;0.121189;
0.114861;-0.0153385;0.115322;
0.114871;-0.0144992;0.108999;
0.114881;-0.0136028;0.102246;
0.114891;-0.0126526;0.0950886;
0.114901;-0.0116526;0.0875557;
0.114911;-0.0106065;0.0796768;
0.114921;-0.00951859;0.071483;
0.114931;-0.0083931;0.0630066;
0.114941;-0.00723449;0.0542812;
0.114951;-0.00604732;0.0453411;
0.114961;-0.0048363;0.0362217;
0.114971;-0.00360618;0.026959;
0.114981;-0.00236183;0.0175897;
0.114991;-0.00110817;0.00815071;
0.115001;0.000149875;-0.0013205;
0.115011;0.00140732;-0.0107865;
0.115021;0.00265922;-0.02021;
0.115031;0.00390062;-0.0295535;
0.115041;0.00512663;-0.0387802;
0.115051;0.0063324;-0.0478536;
0.115061;0.00751319;-0.0567379;
0.115071;0.00866432;-0.0653979;
0.115081;0.00978126;-0.0737994;
0.115091;0.0108596;-0.0819093;
0.115101;0.0118951;-0.0896956;
0.115111;0.0128836;-0.0971276;
0.115121;0.0138213;-0.104176;
0.115131;0.0147044;-0.110813;
0.115141;0.0155295;-0.117012;
0.115151;0.0162934;-0.12275;
0.115161;0.0169929;-0.128002;
0.115171;0.0176253;-0.13275;
0.115181;0.0181882;-0.136974;
0.115191;0.0186794;-0.140658;
0.115201;0.0190968;-0.143786;
0.115211;0.0194388;-0.146348;
0.115221;0.0197041;-0.148332;
0.115231;0.0198917;-0.149731;
0.115241;0.0200007;-0.15054;
0.115251;0.0200308;-0.150755;
0.115261;0.0199819;-0.150376;
0.115271;0.0198541;-0.149403;
0.115281;0.0196479;-0.147842;
0.115291;0.0193642;-0.145697;
0.115301;0.0190041;-0.142978;
0.115311;0.018569;-0.139694;
0.115321;0.0180606;-0.13586;
0.115331;0.0174809;-0.131489;
0.115341;0.0168323;-0.1266;
0.115351;0.0161172;-0.121211;
0.115361;0.0153385;-0.115344;
0.115371;0.0144992;-0.109021;
0.115381;0.0136028;-0.102267;
0.115391;0.0126526;-0.0951102;
0.115401;0.0116526;-0.0875773;
0.115411;0.0106065;-0.0796984;
0.115421;0.00951858;-0.0715047;
0.115431;0.00839309;-0.0630283;
0.115441;0.00723448;-0.0543028;
0.115451;0.00604732;-0.0453627;
0.115461;0.00483629;-0.0362433;
0.115471;0.00360618;-0.0269806;
0.115481;0.00236183;-0.0176113;
0.115491;0.00110816;-0.00817237;
0.115501;-0.00014988;0.00129885;
0.115511;-0.00140733;0.0107649;
0.115521;-0.00265923;0.0201883;
0.115531;-0.00390063;0.0295318;
0.115541;-0.00512663;0.0387586;
0.115551;-0.00633241;0.047832;
0.115561;-0.00751319;0.0567162;
0.115571;-0.00866432;0.0653762;
0.115581;-0.00978126;0.0737778;
0.115591;-0.0108596;0.0818877;
0.115601;-0.0118951;0.089674;
0.115611;-0.0128836;0.097106;
0.115621;-0.0138213;0.104154;
0.115631;-0.0147044;0.110791;
0.115641;-0.0155295;0.116991;
0.115651;-0.0162934;0.122728;
0.115661;-0.0169929;0.127981;
0.115671;-0.0176253;0.132729;
0.115681;-0.0181882;0.136953;
0.115691;-0.0186794;0.140636;
0.115701;-0.0190968;0.143765;
0.115711;-0.0194388;0.146326;
0.115721;-0.0197041;0.14831;
0.115731;-0.0198917;0.14971;
0.115741;-0.0200007;0.150518;
0.115751;-0.0200308;0.150733;
0.115761;-0.0199819;0.150354;
0.115771;-0.0198541;0.149382;
0.115781;-0.0196479;0.14782;
0.115791;-0.0193642;0.145675;
0.115801;-0.0190041;0.142956;
0.115811;-0.018569;0.139673;
0.115821;-0.0180606;0.135838;
0.115831;-0.0174809;0.131468;
0.115841;-0.0168323;0.126578;
0.115851;-0.0161172;0.121189;
0.115861;-0.0153385;0.115322;
0.115871;-0.0144992;0.108999;
0.115881;-0.0136028;0.102246;
0.115891;-0.0126526;0.0950886;
0.115901;-0.0116526;0.0875557;
0.115911;-0.0106065;0.0796769;
0.115921;-0.00951859;0.0714831;
0.115931;-0.0083931;0.0630067;
0.115941;-0.00723449;0.0542813;
0.115951;-0.00604732;0.0453412;
0.115961;-0.0048363;0.0362217;
0.115971;-0.00360618;0.0269591;
0.115981;-0.00236183;0.0175897;
0.115991;-0.00110817;0.0081508;
0.116001;0.000149875;-0.00132041;
0.116011;0.00140732;-0.0107864;
0.116021;0.00265922;-0.0202099;
0.116031;0.00390062;-0.0295534;
0.116041;0.00512663;-0.0387801;
0.116051;0.0063324;-0.0478535;
0.116061;0.00751319;-0.0567378;
0.116071;0.00866432;-0.0653978;
0.116081;0.00978126;-0.0737993;
0.116091;0.0108596;-0.0819093;
0.116101;0.0118951;-0.0896955;
0.116111;0.0128836;-0.0971275;
0.116121;0.0138213;-0.104176;
0.116131;0.0147044;-0.110813;
0.116141;0.0155295;-0.117012;
0.116151;0.0162934;-0.122749;
0.116161;0.0169929;-0.128002;
0.116171;0.0176253;-0.13275;
0.116181;0.0181882;-0.136974;
0.116191;0.0186794;-0.140658;
0.116201;0.0190968;-0.143786;
0.116211;0.0194388;-0.146348;
0.116221;0.0197041;-0.148332;
0.116231;0.0198917;-0.149731;
0.116241;0.0200007;-0.15054;
0.116251;0.0200308;-0.150755;
0.116261;0.0199819;-0.150376;
0.116271;0.0198541;-0.149403;
0.116281;0.0196479;-0.147842;
0.116291;0.0193642;-0.145697;
0.116301;0.0190041;-0.142978;
0.116311;0.018569;-0.139694;
0.116321;0.0180606;-0.13586;
0.116331;0.0174809;-0.131489;
0.116341;0.0168323;-0.1266;
0.116351;0.0161172;-0.121211;
0.116361;0.0153385;-0.115344;
0.116371;0.0144992;-0.109021;
0.116381;0.0136028;-0.102267;
0.116391;0.0126526;-0.0951101;
0.116401;0.0116526;-0.0875772;
0.116411;0.0106065;-0.0796984;
0.116421;0.00951858;-0.0715046;
0.116431;0.00839309;-0.0630282;
0.116441;0.00723448;-0.0543027;
0.116451;0.00604732;-0.0453627;
0.116461;0.00483629;-0.0362432;
0.116471;0.00360618;-0.0269806;
0.116481;0.00236183;-0.0176112;
0.116491;0.00110816;-0.00817228;
0.116501;-0.00014988;0.00129893;
0.116511;-0.00140733;0.010765;
0.116521;-0.00265923;0.0201884;
0.116531;-0.00390063;0.0295319;
0.116541;-0.00512663;0.0387586;
0.116551;-0.00633241;0.0478321;
0.116561;-0.00751319;0.0567163;
0.116571;-0.00866432;0.0653763;
0.116581;-0.00978126;0.0737779;
0.116591;-0.0108596;0.0818878;
0.116601;-0.0118951;0.0896741;
0.116611;-0.0128836;0.097106;
0.116621;-0.0138213;0.104154;
0.116631;-0.0147044;0.110791;
0.116641;-0.0155295;0.116991;
0.116651;-0.0162934;0.122728;
0.116661;-0.0169929;0.127981;
0.116671;-0.0176253;0.132729;
0.116681;-0.0181882;0.136953;
0.116691;-0.0186794;0.140636;
0.116701;-0.0190968;0.143765;
0.116711;-0.0194388;0.146326;
0.116721;-0.0197041;0.14831;
0.116731;-0.0198917;0.14971;
0.116741;-0.0200007;0.150518;
0.116751;-0.0200308;0.150734;
0.116761;-0.0199819;0.150354;
0.116771;-0.0198541;0.149382;
0.116781;-0.0196479;0.14782;
0.116791;-0.0193642;0.145675;
0.116801;-0.0190041;0.142956;
0.116811;-0.018569;0.139673;
0.116821;-0.0180606;0.135838;
0.116831;-0.0174809;0.131468;
0.116841;-0.0168323;0.126579;
0.116851;-0.0161172;0.12119;
0.116861;-0.0153385;0.115322;
0.116871;-0.0144992;0.108999;
0.116881;-0.0136028;0.102246;
0.116891;-0.0126526;0.0950887;
0.116901;-0.0116526;0.0875558;
0.116911;-0.0106065;0.0796769;
0.116921;-0.00951859;0.0714832;
0.116931;-0.0083931;0.0630068;
0.116941;-0.00723449;0.0542813;
0.116951;-0.00604732;0.0453412;
0.116961;-0.0048363;0.0362218;
0.116971;-0.00360618;0.0269592;
0.116981;-0.00236183;0.0175898;
0.116991;-0.00110817;0.00815088;
0.117001;0.000149875;-0.00132033;
0.117011;0.00140732;-0.0107864;
0.117021;0.00265922;-0.0202098;
0.117031;0.00390062;-0.0295533;
0.117041;0.00512663;-0.03878;
0.117051;0.0063324;-0.0478535;
0.117061;0.00751319;-0.0567377;
0.117071;0.00866432;-0.0653977;
0.117081;0.00978126;-0.0737993;
0.117091;0.0108596;-0.0819092;
0.117101;0.0118951;-0.0896955;
0.117111;0.0128836;-0.0971274;
0.117121;0.0138213;-0.104176;
0.117131;0.0147044;-0.110813;
0.117141;0.0155295;-0.117012;
0.117151;0.0162934;-0.122749;
0.117161;0.0169929;-0.128002;
0.117171;0.0176253;-0.13275;
0.117181;0.0181882;-0.136974;
0.117191;0.0186794;-0.140657;
0.117201;0.0190968;-0.143786;
0.117211;0.0194388;-0.146348;
0.117221;0.0197041;-0.148332;
0.117231;0.0198917;-0.149731;
0.117241;0.0200007;-0.15054;
0.117251;0.0200308;-0.150755;
0.117261;0.0199819;-0.150375;
0.117271;0.0198541;-0.149403;
0.117281;0.0196479;-0.147841;
0.117291;0.0193642;-0.145697;
0.117301;0.0190041;-0.142977;
0.117311;0.018569;-0.139694;
0.117321;0.0180606;-0.13586;
0.117331;0.0174809;-0.131489;
0.117341;0.0168323;-0.1266;
0.117351;0.0161172;-0.121211;
0.117361;0.0153385;-0.115343;
0.117371;0.0144992;-0.109021;
0.117381;0.0136028;-0.102267;
0.117391;0.0126526;-0.0951101;
0.117401;0.0116526;-0.0875772;
0.117411;0.0106065;-0.0796983;
0.117421;0.00951858;-0.0715045;
0.117431;0.00839309;-0.0630281;
0.117441;0.00723448;-0.0543027;
0.117451;0.00604732;-0.0453626;
0.117461;0.00483629;-0.0362432;
0.117471;0.00360618;-0.0269805;
0.117481;0.00236183;-0.0176111;
0.117491;0.00110816;-0.0081722;
0.117501;-0.00014988;0.00129901;
0.117511;-0.00140733;0.0107651;
0.117521;-0.00265923;0.0201885;
0.117531;-0.00390063;0.029532;
0.117541;-0.00512663;0.0387587;
0.117551;-0.00633241;0.0478321;
0.117561;-0.00751319;0.0567164;
0.117571;-0.00866432;0.0653764;
0.117581;-0.00978126;0.073778;
0.117591;-0.0108596;0.0818879;
0.117601;-0.0118951;0.0896742;
0.117611;-0.0128836;0.0971061;
0.117621;-0.0138213;0.104154;
0.117631;-0.0147044;0.110791;
0.117641;-0.0155295;0.116991;
0.117651;-0.0162934;0.122728;
0.117661;-0.0169929;0.127981;
0.117671;-0.0176253;0.132729;
0.117681;-0.0181882;0.136953;
0.117691;-0.0186794;0.140636;
0.117701;-0.0190968;0.143765;
0.117711;-0.0194388;0.146326;
0.117721;-0.0197041;0.148311;
0.117731;-0.0198917;0.14971;
0.117741;-0.0200007;0.150519;
0.117751;-0.0200308;0.150734;
0.117761;-0.0199819;0.150354;
0.117771;-0.0198541;0.149382;
0.117781;-0.0196479;0.14782;
0.117791;-0.0193642;0.145676;
0.117801;-0.0190041;0.142956;
0.117811;-0.018569;0.139673;
0.117821;-0.0180606;0.135838;
0.117831;-0.0174809;0.131468;
0.117841;-0.0168323;0.126579;
0.117851;-0.0161172;0.12119;
0.117861;-0.0153385;0.115322;
0.117871;-0.0144992;0.108999;
0.117881;-0.0136028;0.102246;
0.117891;-0.0126526;0.0950888;
0.117901;-0.0116526;0.0875559;
0.117911;-0.0106065;0.079677;
0.117921;-0.00951859;0.0714832;
0.117931;-0.0083931;0.0630069;
0.117941;-0.00723449;0.0542814;
0.117951;-0.00604732;0.0453413;
0.117961;-0.0048363;0.0362219;
0.117971;-0.00360618;0.0269592;
0.117981;-0.00236183;0.0175899;
0.117991;-0.00110817;0.00815097;
0.118001;0.000149875;-0.00132025;
0.118011;0.00140732;-0.0107863;
0.118021;0.00265922;-0.0202097;
0.118031;0.00390062;-0.0295532;
0.118041;0.00512663;-0.03878;
0.118051;0.0063324;-0.0478534;
0.118061;0.00751319;-0.0567376;
0.118071;0.00866432;-0.0653976;
0.118081;0.00978126;-0.0737992;
0.118091;0.0108596;-0.0819091;
0.118101;0.0118951;-0.0896954;
0.118111;0.0128836;-0.0971273;
0.118121;0.0138213;-0.104176;
0.118131;0.0147044;-0.110813;
0.118141;0.0155295;-0.117012;
0.118151;0.0162934;-0.122749;
0.118161;0.0169929;-0.128002;
0.118171;0.0176253;-0.13275;
0.118181;0.0181882;-0.136974;
0.118191;0.0186794;-0.140657;
0.118201;0.0190968;-0.143786;
0.118211;0.0194388;-0.146347;
0.118221;0.0197041;-0.148332;
0.118231;0.0198917;-0.149731;
0.118241;0.0200007;-0.15054;
0.118251;0.0200308;-0.150755;
0.118261;0.0199819;-0.150375;
0.118271;0.0198541;-0.149403;
0.118281;0.0196479;-0.147841;
0.118291;0.0193642;-0.145697;
0.118301;0.0190041;-0.142977;
0.118311;0.018569;-0.139694;
0.118321;0.0180606;-0.13586;
0.118331;0.0174809;-0.131489;
0.118341;0.0168323;-0.1266;
0.118351;0.0161172;-0.121211;
0.118361;0.0153385;-0.115343;
0.118371;0.0144992;-0.109021;
0.118381;0.0136028;-0.102267;
0.118391;0.0126526;-0.09511;
0.118401;0.0116526;-0.0875771;
0.118411;0.0106065;-0.0796982;
0.118421;0.00951858;-0.0715044;
0.118431;0.00839309;-0.063028;
0.118441;0.00723448;-0.0543026;
0.118451;0.00604732;-0.0453625;
0.118461;0.00483629;-0.0362431;
0.118471;0.00360618;-0.0269804;
0.118481;0.00236183;-0.0176111;
0.118491;0.00110816;-0.00817212;
0.118501;-0.00014988;0.0012991;
0.118511;-0.00140733;0.0107651;
0.118521;-0.00265923;0.0201886;
0.118531;-0.00390063;0.0295321;
0.118541;-0.00512663;0.0387588;
0.118551;-0.00633241;0.0478322;
0.118561;-0.00751319;0.0567165;
0.118571;-0.00866432;0.0653765;
0.118581;-0.00978126;0.073778;
0.118591;-0.0108596;0.081888;
0.118601;-0.0118951;0.0896742;
0.118611;-0.0128836;0.0971062;
0.118621;-0.0138213;0.104155;
0.118631;-0.0147044;0.110791;
0.118641;-0.0155295;0.116991;
0.118651;-0.0162934;0.122728;
0.118661;-0.0169929;0.127981;
0.118671;-0.0176253;0.132729;
0.118681;-0.0181882;0.136953;
0.118691;-0.0186794;0.140636;
0.118701;-0.0190968;0.143765;
0.118711;-0.0194388;0.146326;
0.118721;-0.0197041;0.148311;
0.118731;-0.0198917;0.14971;
0.118741;-0.0200007;0.150519;
0.118751;-0.0200308;0.150734;
0.118761;-0.0199819;0.150354;
0.118771;-0.0198541;0.149382;
0.118781;-0.0196479;0.14782;
0.118791;-0.0193642;0.145676;
0.118801;-0.0190041;0.142956;
0.118811;-0.018569;0.139673;
0.118821;-0.0180606;0.135839;
0.118831;-0.0174809;0.131468;
0.118841;-0.0168323;0.126579;
0.118851;-0.0161172;0.12119;
0.118861;-0.0153385;0.115322;
0.118871;-0.0144992;0.108999;
0.118881;-0.0136028;0.102246;
0.118891;-0.0126526;0.0950889;
0.118901;-0.0116526;0.087556;
0.118911;-0.0106065;0.0796771;
0.118921;-0.00951859;0.0714833;
0.118931;-0.0083931;0.063007;
0.118941;-0.00723449;0.0542815;
0.118951;-0.00604732;0.0453414;
0.118961;-0.0048363;0.036222;
0.118971;-0.00360618;0.0269593;
0.118981;-0.00236183;0.01759;
0.118991;-0.00110817;0.00815105;
0.119001;0.000149875;-0.00132016;
0.119011;0.00140732;-0.0107862;
0.119021;0.00265922;-0.0202096;
0.119031;0.00390062;-0.0295532;
0.119041;0.00512663;-0.0387799;
0.119051;0.0063324;-0.0478533;
0.119061;0.00751319;-0.0567375;
0.119071;0.00866432;-0.0653975;
0.119081;0.00978126;-0.0737991;
0.119091;0.0108596;-0.081909;
0.119101;0.0118951;-0.0896953;
0.119111;0.0128836;-0.0971272;
0.119121;0.0138213;-0.104176;
0.119131;0.0147044;-0.110812;
0.119141;0.0155295;-0.117012;
0.119151;0.0162934;-0.122749;
0.119161;0.0169929;-0.128002;
0.119171;0.0176253;-0.13275;
0.119181;0.0181882;-0.136974;
0.119191;0.0186794;-0.140657;
0.119201;0.0190968;-0.143786;
0.119211;0.0194388;-0.146347;
0.119221;0.0197041;-0.148332;
0.119231;0.0198917;-0.149731;
0.119241;0.0200007;-0.15054;
0.119251;0.0200308;-0.150755;
0.119261;0.0199819;-0.150375;
0.119271;0.0198541;-0.149403;
0.119281;0.0196479;-0.147841;
0.119291;0.0193642;-0.145697;
0.119301;0.0190041;-0.142977;
0.119311;0.018569;-0.139694;
0.119321;0.0180606;-0.13586;
0.119331;0.0174809;-0.131489;
0.119341;0.0168323;-0.1266;
0.119351;0.0161172;-0.121211;
0.119361;0.0153385;-0.115343;
0.119371;0.0144992;-0.10902;
0.119381;0.0136028;-0.102267;
0.119391;0.0126526;-0.0951099;
0.119401;0.0116526;-0.087577;
0.119411;0.0106065;-0.0796981;
0.119421;0.00951858;-0.0715043;
0.119431;0.00839309;-0.063028;
0.119441;0.00723448;-0.0543025;
0.119451;0.00604732;-0.0453624;
0.119461;0.00483629;-0.036243;
0.119471;0.00360618;-0.0269803;
0.119481;0.00236183;-0.017611;
0.119491;0.00110816;-0.00817203;
0.119501;-0.00014988;0.00129918;
0.119511;-0.00140733;0.0107652;
0.119521;-0.00265923;0.0201886;
0.119531;-0.00390063;0.0295322;
0.119541;-0.00512663;0.0387589;
0.119551;-0.00633241;0.0478323;
0.119561;-0.00751319;0.0567166;
0.119571;-0.00866432;0.0653766;
0.119581;-0.00978126;0.0737781;
0.119591;-0.0108596;0.081888;
0.119601;-0.0118951;0.0896743;
0.119611;-0.0128836;0.0971063;
0.119621;-0.0138213;0.104155;
0.119631;-0.0147044;0.110792;
0.119641;-0.0155295;0.116991;
0.119651;-0.0162934;0.122728;
0.119661;-0.0169929;0.127981;
0.119671;-0.0176253;0.132729;
0.119681;-0.0181882;0.136953;
0.119691;-0.0186794;0.140636;
0.119701;-0.0190968;0.143765;
0.119711;-0.0194388;0.146326;
0.119721;-0.0197041;0.148311;
0.119731;-0.0198917;0.14971;
0.119741;-0.0200007;0.150519;
0.119751;-0.0200308;0.150734;
0.119761;-0.0199819;0.150354;
0.119771;-0.0198541;0.149382;
0.119781;-0.0196479;0.14782;
0.119791;-0.0193642;0.145676;
0.119801;-0.0190041;0.142956;
0.119811;-0.018569;0.139673;
0.119821;-0.0180606;0.135839;
0.119831;-0.0174809;0.131468;
0.119841;-0.0168323;0.126579;
0.119851;-0.0161172;0.12119;
0.119861;-0.0153385;0.115322;
0.119871;-0.0144992;0.109;
0.119881;-0.0136028;0.102246;
0.119891;-0.0126526;0.095089;
0.119901;-0.0116526;0.0875561;
0.119911;-0.0106065;0.0796772;
0.119921;-0.00951859;0.0714834;
0.119931;-0.0083931;0.063007;
0.119941;-0.00723449;0.0542816;
0.119951;-0.00604732;0.0453415;
0.119961;-0.0048363;0.0362221;
0.119971;-0.00360618;0.0269594;
0.119981;-0.00236183;0.0175901;
0.119991;-0.00110817;0.00815113;
0.120001;0.000149875;-0.00132008;
0.120011;0.00140732;-0.0107861;
0.120021;0.00265922;-0.0202095;
0.120031;0.00390062;-0.0295531;
0.120041;0.00512663;-0.0387798;
0.120051;0.0063324;-0.0478532;
0.120061;0.00751319;-0.0567375;
0.120071;0.00866432;-0.0653975;
0.120081;0.00978126;-0.073799;
0.120091;0.0108596;-0.0819089;
0.120101;0.0118951;-0.0896952;
0.120111;0.0128836;-0.0971272;
0.120121;0.0138213;-0.104175;
0.120131;0.0147044;-0.110812;
0.120141;0.0155295;-0.117012;
0.120151;0.0162934;-0.122749;
0.120161;0.0169929;-0.128002;
0.120171;0.0176253;-0.13275;
0.120181;0.0181882;-0.136974;
0.120191;0.0186794;-0.140657;
0.120201;0.0190968;-0.143786;
0.120211;0.0194388;-0.146347;
0.120221;0.0197041;-0.148332;
0.120231;0.0198917;-0.149731;
0.120241;0.0200007;-0.15054;
0.120251;0.0200308;-0.150755;
0.120261;0.0199819;-0.150375;
0.120271;0.0198541;-0.149403;
0.120281;0.0196479;-0.147841;
0.120291;0.0193642;-0.145697;
0.120301;0.0190041;-0.142977;
0.120311;0.018569;-0.139694;
0.120321;0.0180606;-0.135859;
0.120331;0.0174809;-0.131489;
0.120341;0.0168323;-0.1266;
0.120351;0.0161172;-0.121211;
0.120361;0.0153385;-0.115343;
0.120371;0.0144992;-0.10902;
0.120381;0.0136028;-0.102267;
0.120391;0.0126526;-0.0951098;
0.120401;0.0116526;-0.0875769;
0.120411;0.0106065;-0.079698;
0.120421;0.00951858;-0.0715042;
0.120431;0.00839309;-0.0630279;
0.120441;0.00723448;-0.0543024;
0.120451;0.00604732;-0.0453623;
0.120461;0.00483629;-0.0362429;
0.120471;0.00360618;-0.0269802;
0.120481;0.00236183;-0.0176109;
0.120491;0.00110816;-0.00817195;
0.120501;-0.00014988;0.00129926;
0.120511;-0.00140733;0.0107653;
0.120521;-0.00265923;0.0201887;
0.120531;-0.00390063;0.0295323;
0.120541;-0.00512663;0.038759;
0.120551;-0.00633241;0.0478324;
0.120561;-0.00751319;0.0567167;
0.120571;-0.00866432;0.0653767;
0.120581;-0.00978126;0.0737782;
0.120591;-0.0108596;0.0818881;
0.120601;-0.0118951;0.0896744;
0.120611;-0.0128836;0.0971064;
0.120621;-0.0138213;0.104155;
0.120631;-0.0147044;0.110792;
0.120641;-0.0155295;0.116991;
0.120651;-0.0162934;0.122728;
0.120661;-0.0169929;0.127981;
0.120671;-0.0176253;0.132729;
0.120681;-0.0181882;0.136953;
0.120691;-0.0186794;0.140636;
0.120701;-0.0190968;0.143765;
0.120711;-0.0194388;0.146327;
0.120721;-0.0197041;0.148311;
0.120731;-0.0198917;0.14971;
0.120741;-0.0200007;0.150519;
0.120751;-0.0200308;0.150734;
0.120761;-0.0199819;0.150354;
0.120771;-0.0198541;0.149382;
0.120781;-0.0196479;0.14782;
0.120791;-0.0193642;0.145676;
0.120801;-0.0190041;0.142956;
0.120811;-0.018569;0.139673;
0.120821;-0.0180606;0.135839;
0.120831;-0.0174809;0.131468;
0.120841;-0.0168323;0.126579;
0.120851;-0.0161172;0.12119;
0.120861;-0.0153385;0.115322;
0.120871;-0.0144992;0.109;
0.120881;-0.0136028;0.102246;
0.120891;-0.0126526;0.0950891;
0.120901;-0.0116526;0.0875562;
0.120911;-0.0106065;0.0796773;
0.120921;-0.00951859;0.0714835;
0.120931;-0.0083931;0.0630071;
0.120941;-0.00723449;0.0542817;
0.120951;-0.00604732;0.0453416;
0.120961;-0.0048363;0.0362222;
0.120971;-0.00360618;0.0269595;
0.120981;-0.00236183;0.0175901;
0.120991;-0.00110817;0.00815121;
0.121001;0.000149875;-0.00132;
0.121011;0.00140732;-0.010786;
0.121021;0.00265922;-0.0202095;
0.121031;0.00390062;-0.029553;
0.121041;0.00512663;-0.0387797;
0.121051;0.0063324;-0.0478531;
0.121061;0.00751319;-0.0567374;
0.121071;0.00866432;-0.0653974;
0.121081;0.00978126;-0.0737989;
0.121091;0.0108596;-0.0819088;
0.121101;0.0118951;-0.0896951;
0.121111;0.0128836;-0.0971271;
0.121121;0.0138213;-0.104175;
0.121131;0.0147044;-0.110812;
0.121141;0.0155295;-0.117012;
0.121151;0.0162934;-0.122749;
0.121161;0.0169929;-0.128002;
0.121171;0.0176253;-0.13275;
0.121181;0.0181882;-0.136974;
0.121191;0.0186794;-0.140657;
0.121201;0.0190968;-0.143786;
0.121211;0.0194388;-0.146347;
0.121221;0.0197041;-0.148331;
0.121231;0.0198917;-0.149731;
0.121241;0.0200007;-0.150539;
0.121251;0.0200308;-0.150755;
0.121261;0.0199819;-0.150375;
0.121271;0.0198541;-0.149403;
0.121281;0.0196479;-0.147841;
0.121291;0.0193642;-0.145696;
0.121301;0.0190041;-0.142977;
0.121311;0.018569;-0.139694;
0.121321;0.0180606;-0.135859;
0.121331;0.0174809;-0.131489;
0.121341;0.0168323;-0.1266;
0.121351;0.0161172;-0.121211;
0.121361;0.0153385;-0.115343;
0.121371;0.0144992;-0.10902;
0.121381;0.0136028;-0.102267;
0.121391;0.0126526;-0.0951097;
0.121401;0.0116526;-0.0875768;
0.121411;0.0106065;-0.0796979;
0.121421;0.00951858;-0.0715042;
0.121431;0.00839309;-0.0630278;
0.121441;0.00723448;-0.0543023;
0.121451;0.00604732;-0.0453622;
0.121461;0.00483629;-0.0362428;
0.121471;0.00360618;-0.0269801;
0.121481;0.00236183;-0.0176108;
0.121491;0.00110816;-0.00817187;
0.121501;-0.00014988;0.00129934;
0.121511;-0.00140733;0.0107654;
0.121521;-0.00265923;0.0201888;
0.121531;-0.00390063;0.0295323;
0.121541;-0.00512663;0.0387591;
0.121551;-0.00633241;0.0478325;
0.121561;-0.00751319;0.0567167;
0.121571;-0.00866432;0.0653767;
0.121581;-0.00978126;0.0737783;
0.121591;-0.0108596;0.0818882;
0.121601;-0.0118951;0.0896745;
0.121611;-0.0128836;0.0971064;
0.121621;-0.0138213;0.104155;
0.121631;-0.0147044;0.110792;
0.121641;-0.0155295;0.116991;
0.121651;-0.0162934;0.122728;
0.121661;-0.0169929;0.127981;
0.121671;-0.0176253;0.132729;
0.121681;-0.0181882;0.136953;
0.121691;-0.0186794;0.140637;
0.121701;-0.0190968;0.143765;
0.121711;-0.0194388;0.146327;
0.121721;-0.0197041;0.148311;
0.121731;-0.0198917;0.14971;
0.121741;-0.0200007;0.150519;
0.121751;-0.0200308;0.150734;
0.121761;-0.0199819;0.150355;
0.121771;-0.0198541;0.149382;
0.121781;-0.0196479;0.147821;
0.121791;-0.0193642;0.145676;
0.121801;-0.0190041;0.142957;
0.121811;-0.018569;0.139673;
0.121821;-0.0180606;0.135839;
0.121831;-0.0174809;0.131468;
0.121841;-0.0168323;0.126579;
0.121851;-0.0161172;0.12119;
0.121861;-0.0153385;0.115323;
0.121871;-0.0144992;0.109;
0.121881;-0.0136028;0.102246;
0.121891;-0.0126526;0.0950891;
0.121901;-0.0116526;0.0875562;
0.121911;-0.0106065;0.0796774;
0.121921;-0.00951859;0.0714836;
0.121931;-0.0083931;0.0630072;
0.121941;-0.00723449;0.0542818;
0.121951;-0.00604732;0.0453417;
0.121961;-0.0048363;0.0362222;
0.121971;-0.00360618;0.0269596;
0.121981;-0.00236183;0.0175902;
0.121991;-0.00110817;0.00815129;
0.122001;0.000149875;-0.00131992;
0.122011;0.00140732;-0.010786;
0.122021;0.00265922;-0.0202094;
0.122031;0.00390062;-0.0295529;
0.122041;0.00512663;-0.0387796;
0.122051;0.0063324;-0.047853;
0.122061;0.00751319;-0.0567373;
0.122071;0.00866432;-0.0653973;
0.122081;0.00978126;-0.0737988;
0.122091;0.0108596;-0.0819088;
0.122101;0.0118951;-0.089695;
0.122111;0.0128836;-0.097127;
0.122121;0.0138213;-0.104175;
0.122131;0.0147044;-0.110812;
0.122141;0.0155295;-0.117012;
0.122151;0.0162934;-0.122749;
0.122161;0.0169929;-0.128002;
0.122171;0.0176253;-0.13275;
0.122181;0.0181882;-0.136974;
0.122191;0.0186794;-0.140657;
0.122201;0.0190968;-0.143786;
0.122211;0.0194388;-0.146347;
0.122221;0.0197041;-0.148331;
0.122231;0.0198917;-0.149731;
0.122241;0.0200007;-0.150539;
0.122251;0.0200308;-0.150754;
0.122261;0.0199819;-0.150375;
0.122271;0.0198541;-0.149403;
0.122281;0.0196479;-0.147841;
0.122291;0.0193642;-0.145696;
0.122301;0.0190041;-0.142977;
0.122311;0.018569;-0.139694;
0.122321;0.0180606;-0.135859;
0.122331;0.0174809;-0.131489;
0.122341;0.0168323;-0.126599;
0.122351;0.0161172;-0.12121;
0.122361;0.0153385;-0.115343;
0.122371;0.0144992;-0.10902;
0.122381;0.0136028;-0.102267;
0.122391;0.0126526;-0.0951096;
0.122401;0.0116526;-0.0875767;
0.122411;0.0106065;-0.0796979;
0.122421;0.00951858;-0.0715041;
0.122431;0.00839309;-0.0630277;
0.122441;0.00723448;-0.0543023;
0.122451;0.00604732;-0.0453622;
0.122461;0.00483629;-0.0362427;
0.122471;0.00360618;-0.0269801;
0.122481;0.00236183;-0.0176107;
0.122491;0.00110816;-0.00817179;
0.122501;-0.00014988;0.00129942;
0.122511;-0.00140733;0.0107655;
0.122521;-0.00265923;0.0201889;
0.122531;-0.00390063;0.0295324;
0.122541;-0.00512663;0.0387591;
0.122551;-0.00633241;0.0478326;
0.122561;-0.00751319;0.0567168;
0.122571;-0.00866432;0.0653768;
0.122581;-0.00978126;0.0737784;
0.122591;-0.0108596;0.0818883;
0.122601;-0.0118951;0.0896746;
0.122611;-0.0128836;0.0971065;
0.122621;-0.0138213;0.104155;
0.122631;-0.0147044;0.110792;
0.122641;-0.0155295;0.116991;
0.122651;-0.0162934;0.122729;
0.122661;-0.0169929;0.127981;
0.122671;-0.0176253;0.132729;
0.122681;-0.0181882;0.136953;
0.122691;-0.0186794;0.140637;
0.122701;-0.0190968;0.143765;
0.122711;-0.0194388;0.146327;
0.122721;-0.0197041;0.148311;
0.122731;-0.0198917;0.14971;
0.122741;-0.0200007;0.150519;
0.122751;-0.0200308;0.150734;
0.122761;-0.0199819;0.150355;
0.122771;-0.0198541;0.149382;
0.122781;-0.0196479;0.147821;
0.122791;-0.0193642;0.145676;
0.122801;-0.0190041;0.142957;
0.122811;-0.018569;0.139673;
0.122821;-0.0180606;0.135839;
0.122831;-0.0174809;0.131468;
0.122841;-0.0168323;0.126579;
0.122851;-0.0161172;0.12119;
0.122861;-0.0153385;0.115323;
0.122871;-0.0144992;0.109;
0.122881;-0.0136028;0.102246;
0.122891;-0.0126526;0.0950892;
0.122901;-0.0116526;0.0875563;
0.122911;-0.0106065;0.0796774;
0.122921;-0.00951858;0.0714836;
0.122931;-0.0083931;0.0630073;
0.122941;-0.00723449;0.0542818;
0.122951;-0.00604732;0.0453417;
0.122961;-0.0048363;0.0362223;
0.122971;-0.00360618;0.0269596;
0.122981;-0.00236183;0.0175903;
0.122991;-0.00110817;0.00815137;
0.123001;0.000149875;-0.00131984;
0.123011;0.00140732;-0.0107859;
0.123021;0.00265922;-0.0202093;
0.123031;0.00390062;-0.0295528;
0.123041;0.00512663;-0.0387795;
0.123051;0.0063324;-0.047853;
0.123061;0.00751319;-0.0567372;
0.123071;0.00866432;-0.0653972;
0.123081;0.00978126;-0.0737988;
0.123091;0.0108596;-0.0819087;
0.123101;0.0118951;-0.089695;
0.123111;0.0128836;-0.0971269;
0.123121;0.0138213;-0.104175;
0.123131;0.0147044;-0.110812;
0.123141;0.0155295;-0.117011;
0.123151;0.0162934;-0.122749;
0.123161;0.0169929;-0.128002;
0.123171;0.0176253;-0.13275;
0.123181;0.0181882;-0.136973;
0.123191;0.0186794;-0.140657;
0.123201;0.0190968;-0.143786;
0.123211;0.0194388;-0.146347;
0.123221;0.0197041;-0.148331;
0.123231;0.0198917;-0.149731;
0.123241;0.0200007;-0.150539;
0.123251;0.0200308;-0.150754;
0.123261;0.0199819;-0.150375;
0.123271;0.0198541;-0.149403;
0.123281;0.0196479;-0.147841;
0.123291;0.0193642;-0.145696;
0.123301;0.0190041;-0.142977;
0.123311;0.018569;-0.139694;
0.123321;0.0180606;-0.135859;
0.123331;0.0174809;-0.131489;
0.123341;0.0168323;-0.126599;
0.123351;0.0161172;-0.12121;
0.123361;0.0153385;-0.115343;
0.123371;0.0144992;-0.10902;
0.123381;0.0136028;-0.102267;
0.123391;0.0126526;-0.0951096;
0.123401;0.0116526;-0.0875767;
0.123411;0.0106065;-0.0796978;
0.123421;0.00951858;-0.071504;
0.123431;0.00839309;-0.0630276;
0.123441;0.00723448;-0.0543022;
0.123451;0.00604732;-0.0453621;
0.123461;0.00483629;-0.0362427;
0.123471;0.00360618;-0.02698;
0.123481;0.00236183;-0.0176106;
0.123491;0.00110816;-0.00817171;
0.123501;-0.00014988;0.0012995;
0.123511;-0.00140733;0.0107655;
0.123521;-0.00265923;0.020189;
0.123531;-0.00390063;0.0295325;
0.123541;-0.00512663;0.0387592;
0.123551;-0.00633241;0.0478326;
0.123561;-0.00751319;0.0567169;
0.123571;-0.00866432;0.0653769;
0.123581;-0.00978126;0.0737784;
0.123591;-0.0108596;0.0818884;
0.123601;-0.0118951;0.0896747;
0.123611;-0.0128836;0.0971066;
0.123621;-0.0138213;0.104155;
0.123631;-0.0147044;0.110792;
0.123641;-0.0155295;0.116991;
0.123651;-0.0162934;0.122729;
0.123661;-0.0169929;0.127982;
0.123671;-0.0176253;0.132729;
0.123681;-0.0181882;0.136953;
0.123691;-0.0186794;0.140637;
0.123701;-0.0190968;0.143765;
0.123711;-0.0194388;0.146327;
0.123721;-0.0197041;0.148311;
0.123731;-0.0198917;0.14971;
0.123741;-0.0200007;0.150519;
0.123751;-0.0200308;0.150734;
0.123761;-0.0199819;0.150355;
0.123771;-0.0198541;0.149382;
0.123781;-0.0196479;0.147821;
0.123791;-0.0193642;0.145676;
0.123801;-0.0190041;0.142957;
0.123811;-0.018569;0.139673;
0.123821;-0.0180606;0.135839;
0.123831;-0.0174809;0.131468;
0.123841;-0.0168323;0.126579;
0.123851;-0.0161172;0.12119;
0.123861;-0.0153385;0.115323;
0.123871;-0.0144992;0.109;
0.123881;-0.0136028;0.102247;
0.123891;-0.0126526;0.0950893;
0.123901;-0.0116526;0.0875564;
0.123911;-0.0106065;0.0796775;
0.123921;-0.00951858;0.0714837;
0.123931;-0.0083931;0.0630074;
0.123941;-0.00723449;0.0542819;
0.123951;-0.00604732;0.0453418;
0.123961;-0.0048363;0.0362224;
0.123971;-0.00360618;0.0269597;
0.123981;-0.00236183;0.0175904;
0.123991;-0.00110817;0.00815145;
0.124001;0.000149875;-0.00131976;
0.124011;0.00140732;-0.0107858;
0.124021;0.00265922;-0.0202092;
0.124031;0.00390062;-0.0295527;
0.124041;0.00512663;-0.0387795;
0.124051;0.0063324;-0.0478529;
0.124061;0.00751319;-0.0567371;
0.124071;0.00866432;-0.0653971;
0.124081;0.00978126;-0.0737987;
0.124091;0.0108596;-0.0819086;
0.124101;0.0118951;-0.0896949;
0.124111;0.0128836;-0.0971268;
0.124121;0.0138213;-0.104175;
0.124131;0.0147044;-0.110812;
0.124141;0.0155295;-0.117011;
0.124151;0.0162934;-0.122749;
0.124161;0.0169929;-0.128002;
0.124171;0.0176253;-0.132749;
0.124181;0.0181882;-0.136973;
0.124191;0.0186794;-0.140657;
0.124201;0.0190968;-0.143786;
0.124211;0.0194388;-0.146347;
0.124221;0.0197041;-0.148331;
0.124231;0.0198917;-0.14973;
0.124241;0.0200007;-0.150539;
0.124251;0.0200308;-0.150754;
0.124261;0.0199819;-0.150375;
0.124271;0.0198541;-0.149403;
0.124281;0.0196479;-0.147841;
0.124291;0.0193642;-0.145696;
0.124301;0.0190041;-0.142977;
0.124311;0.018569;-0.139694;
0.124321;0.0180606;-0.135859;
0.124331;0.0174809;-0.131489;
0.124341;0.0168323;-0.126599;
0.124351;0.0161172;-0.12121;
0.124361;0.0153385;-0.115343;
0.124371;0.0144992;-0.10902;
0.124381;0.0136028;-0.102267;
0.124391;0.0126526;-0.0951095;
0.124401;0.0116526;-0.0875766;
0.124411;0.0106065;-0.0796977;
0.124421;0.00951858;-0.0715039;
0.124431;0.00839309;-0.0630276;
0.124441;0.00723448;-0.0543021;
0.124451;0.00604732;-0.045362;
0.124461;0.00483629;-0.0362426;
0.124471;0.00360618;-0.0269799;
0.124481;0.00236183;-0.0176106;
0.124491;0.00110816;-0.00817163;
0.124501;-0.00014988;0.00129958;
0.124511;-0.00140733;0.0107656;
0.124521;-0.00265923;0.020189;
0.124531;-0.00390063;0.0295326;
0.124541;-0.00512663;0.0387593;
0.124551;-0.00633241;0.0478327;
0.124561;-0.00751319;0.056717;
0.124571;-0.00866432;0.065377;
0.124581;-0.00978126;0.0737785;
0.124591;-0.0108596;0.0818884;
0.124601;-0.0118951;0.0896747;
0.124611;-0.0128836;0.0971067;
0.124621;-0.0138213;0.104155;
0.124631;-0.0147044;0.110792;
0.124641;-0.0155295;0.116991;
0.124651;-0.0162934;0.122729;
0.124661;-0.0169929;0.127982;
0.124671;-0.0176253;0.132729;
0.124681;-0.0181882;0.136953;
0.124691;-0.0186794;0.140637;
0.124701;-0.0190968;0.143765;
0.124711;-0.0194388;0.146327;
0.124721;-0.0197041;0.148311;
0.124731;-0.0198917;0.14971;
0.124741;-0.0200007;0.150519;
0.124751;-0.0200308;0.150734;
0.124761;-0.0199819;0.150355;
0.124771;-0.0198541;0.149382;
0.124781;-0.0196479;0.147821;
0.124791;-0.0193642;0.145676;
0.124801;-0.0190041;0.142957;
0.124811;-0.018569;0.139673;
0.124821;-0.0180606;0.135839;
0.124831;-0.0174809;0.131469;
0.124841;-0.0168323;0.126579;
0.124851;-0.0161172;0.12119;
0.124861;-0.0153385;0.115323;
0.124871;-0.0144992;0.109;
0.124881;-0.0136028;0.102247;
0.124891;-0.0126526;0.0950894;
0.124901;-0.0116526;0.0875565;
0.124911;-0.0106065;0.0796776;
0.124921;-0.00951858;0.0714838;
0.124931;-0.0083931;0.0630075;
0.124941;-0.00723449;0.054282;
0.124951;-0.00604732;0.0453419;
0.124961;-0.0048363;0.0362225;
0.124971;-0.00360618;0.0269598;
0.124981;-0.00236183;0.0175905;
0.124991;-0.00110817;0.00815153;
0.125001;0.000149875;-0.00131968;
0.125011;0.00140732;-0.0107857;
0.125021;0.00265922;-0.0202091;
0.125031;0.00390062;-0.0295527;
0.125041;0.00512663;-0.0387794;
0.125051;0.0063324;-0.0478528;
0.125061;0.00751319;-0.0567371;
0.125071;0.00866432;-0.0653971;
0.125081;0.00978126;-0.0737986;
0.125091;0.0108596;-0.0819085;
0.125101;0.0118951;-0.0896948;
0.125111;0.0128836;-0.0971268;
0.125121;0.0138213;-0.104175;
0.125131;0.0147044;-0.110812;
0.125141;0.0155295;-0.117011;
0.125151;0.0162934;-0.122749;
0.125161;0.0169929;-0.128002;
0.125171;0.0176253;-0.132749;
0.125181;0.0181882;-0.136973;
0.125191;0.0186794;-0.140657;
0.125201;0.0190968;-0.143785;
0.125211;0.0194388;-0.146347;
0.125221;0.0197041;-0.148331;
0.125231;0.0198917;-0.14973;
0.125241;0.0200007;-0.150539;
0.125251;0.0200308;-0.150754;
0.125261;0.0199819;-0.150375;
0.125271;0.0198541;-0.149402;
0.125281;0.0196479;-0.147841;
0.125291;0.0193642;-0.145696;
0.125301;0.0190041;-0.142977;
0.125311;0.018569;-0.139693;
0.125321;0.0180606;-0.135859;
0.125331;0.0174809;-0.131489;
0.125341;0.0168323;-0.126599;
0.125351;0.0161172;-0.12121;
0.125361;0.0153385;-0.115343;
0.125371;0.0144992;-0.10902;
0.125381;0.0136028;-0.102267;
0.125391;0.0126526;-0.0951094;
0.125401;0.0116526;-0.0875765;
0.125411;0.0106065;-0.0796976;
0.125421;0.00951858;-0.0715038;
0.125431;0.00839309;-0.0630275;
0.125441;0.00723448;-0.054302;
0.125451;0.00604732;-0.0453619;
0.125461;0.00483629;-0.0362425;
0.125471;0.00360618;-0.0269798;
0.125481;0.00236183;-0.0176105;
0.125491;0.00110816;-0.00817155;
0.125501;-0.00014988;0.00129966;
0.125511;-0.00140733;0.0107657;
0.125521;-0.00265923;0.0201891;
0.125531;-0.00390063;0.0295327;
0.125541;-0.00512663;0.0387594;
0.125551;-0.00633241;0.0478328;
0.125561;-0.00751319;0.0567171;
0.125571;-0.00866432;0.0653771;
0.125581;-0.00978126;0.0737786;
0.125591;-0.0108596;0.0818885;
0.125601;-0.0118951;0.0896748;
0.125611;-0.0128836;0.0971068;
0.125621;-0.0138213;0.104155;
0.125631;-0.0147044;0.110792;
0.125641;-0.0155295;0.116991;
0.125651;-0.0162934;0.122729;
0.125661;-0.0169929;0.127982;
0.125671;-0.0176253;0.132729;
0.125681;-0.0181882;0.136953;
0.125691;-0.0186794;0.140637;
0.125701;-0.0190968;0.143765;
0.125711;-0.0194388;0.146327;
0.125721;-0.0197041;0.148311;
0.125731;-0.0198917;0.14971;
0.125741;-0.0200007;0.150519;
0.125751;-0.0200308;0.150734;
0.125761;-0.0199819;0.150355;
0.125771;-0.0198541;0.149382;
0.125781;-0.0196479;0.147821;
0.125791;-0.0193642;0.145676;
0.125801;-0.0190041;0.142957;
0.125811;-0.018569;0.139674;
0.125821;-0.0180606;0.135839;
0.125831;-0.0174809;0.131469;
0.125841;-0.0168323;0.126579;
0.125851;-0.0161172;0.12119;
0.125861;-0.0153385;0.115323;
0.125871;-0.0144992;0.109;
0.125881;-0.0136028;0.102247;
0.125891;-0.0126526;0.0950895;
0.125901;-0.0116526;0.0875566;
0.125911;-0.0106065;0.0796777;
0.125921;-0.00951858;0.0714839;
0.125931;-0.0083931;0.0630075;
0.125941;-0.00723449;0.0542821;
0.125951;-0.00604732;0.045342;
0.125961;-0.0048363;0.0362226;
0.125971;-0.00360618;0.0269599;
0.125981;-0.00236183;0.0175905;
0.125991;-0.00110817;0.00815161;
0.126001;0.000149875;-0.0013196;
0.126011;0.00140732;-0.0107856;
0.126021;0.00265922;-0.0202091;
0.126031;0.00390062;-0.0295526;
0.126041;0.00512663;-0.0387793;
0.126051;0.0063324;-0.0478527;
0.126061;0.00751319;-0.056737;
0.126071;0.00866432;-0.065397;
0.126081;0.00978126;-0.0737985;
0.126091;0.0108596;-0.0819084;
0.126101;0.0118951;-0.0896947;
0.126111;0.0128836;-0.0971267;
0.126121;0.0138213;-0.104175;
0.126131;0.0147044;-0.110812;
0.126141;0.0155295;-0.117011;
0.126151;0.0162934;-0.122749;
0.126161;0.0169929;-0.128002;
0.126171;0.0176253;-0.132749;
0.126181;0.0181882;-0.136973;
0.126191;0.0186794;-0.140657;
0.126201;0.0190968;-0.143785;
0.126211;0.0194388;-0.146347;
0.126221;0.0197041;-0.148331;
0.126231;0.0198917;-0.14973;
0.126241;0.0200007;-0.150539;
0.126251;0.0200308;-0.150754;
0.126261;0.0199819;-0.150375;
0.126271;0.0198541;-0.149402;
0.126281;0.0196479;-0.147841;
0.126291;0.0193642;-0.145696;
0.126301;0.0190041;-0.142977;
0.126311;0.018569;-0.139693;
0.126321;0.0180606;-0.135859;
0.126331;0.0174809;-0.131488;
0.126341;0.0168323;-0.126599;
0.126351;0.0161172;-0.12121;
0.126361;0.0153385;-0.115343;
0.126371;0.0144992;-0.10902;
0.126381;0.0136028;-0.102267;
0.126391;0.0126526;-0.0951093;
0.126401;0.0116526;-0.0875764;
0.126411;0.0106065;-0.0796975;
0.126421;0.00951858;-0.0715038;
0.126431;0.00839309;-0.0630274;
0.126441;0.00723448;-0.0543019;
0.126451;0.00604732;-0.0453618;
0.126461;0.00483629;-0.0362424;
0.126471;0.00360618;-0.0269797;
0.126481;0.00236183;-0.0176104;
0.126491;0.00110816;-0.00817147;
0.126501;-0.00014988;0.00129974;
0.126511;-0.00140733;0.0107658;
0.126521;-0.00265923;0.0201892;
0.126531;-0.00390063;0.0295327;
0.126541;-0.00512663;0.0387595;
0.126551;-0.00633241;0.0478329;
0.126561;-0.00751319;0.0567171;
0.126571;-0.00866432;0.0653771;
0.126581;-0.00978126;0.0737787;
0.126591;-0.0108596;0.0818886;
0.126601;-0.0118951;0.0896749;
0.126611;-0.0128836;0.0971068;
0.126621;-0.0138213;0.104155;
0.126631;-0.0147044;0.110792;
0.126641;-0.0155295;0.116991;
0.126651;-0.0162934;0.122729;
0.126661;-0.0169929;0.127982;
0.126671;-0.0176253;0.13273;
0.126681;-0.0181882;0.136953;
0.126691;-0.0186794;0.140637;
0.126701;-0.0190968;0.143766;
0.126711;-0.0194388;0.146327;
0.126721;-0.0197041;0.148311;
0.126731;-0.0198917;0.14971;
0.126741;-0.0200007;0.150519;
0.126751;-0.0200308;0.150734;
0.126761;-0.0199819;0.150355;
0.126771;-0.0198541;0.149383;
0.126781;-0.0196479;0.147821;
0.126791;-0.0193642;0.145676;
0.126801;-0.0190041;0.142957;
0.126811;-0.018569;0.139674;
0.126821;-0.0180606;0.135839;
0.126831;-0.0174809;0.131469;
0.126841;-0.0168323;0.126579;
0.126851;-0.0161172;0.12119;
0.126861;-0.0153385;0.115323;
0.126871;-0.0144992;0.109;
0.126881;-0.0136028;0.102247;
0.126891;-0.0126526;0.0950895;
0.126901;-0.0116526;0.0875566;
0.126911;-0.0106065;0.0796778;
0.126921;-0.00951858;0.071484;
0.126931;-0.0083931;0.0630076;
0.126941;-0.00723449;0.0542821;
0.126951;-0.00604732;0.045342;
0.126961;-0.0048363;0.0362226;
0.126971;-0.00360618;0.02696;
0.126981;-0.00236183;0.0175906;
0.126991;-0.00110817;0.00815169;
0.127001;0.000149875;-0.00131952;
0.127011;0.00140732;-0.0107856;
0.127021;0.00265922;-0.020209;
0.127031;0.00390062;-0.0295525;
0.127041;0.00512663;-0.0387792;
0.127051;0.0063324;-0.0478526;
0.127061;0.00751319;-0.0567369;
0.127071;0.00866432;-0.0653969;
0.127081;0.00978126;-0.0737984;
0.127091;0.0108596;-0.0819084;
0.127101;0.0118951;-0.0896946;
0.127111;0.0128836;-0.0971266;
0.127121;0.0138213;-0.104175;
0.127131;0.0147044;-0.110812;
0.127141;0.0155295;-0.117011;
0.127151;0.0162934;-0.122749;
0.127161;0.0169929;-0.128002;
0.127171;0.0176253;-0.132749;
0.127181;0.0181882;-0.136973;
0.127191;0.0186794;-0.140657;
0.127201;0.0190968;-0.143785;
0.127211;0.0194388;-0.146347;
0.127221;0.0197041;-0.148331;
0.127231;0.0198917;-0.14973;
0.127241;0.0200007;-0.150539;
0.127251;0.0200308;-0.150754;
0.127261;0.0199819;-0.150375;
0.127271;0.0198541;-0.149402;
0.127281;0.0196479;-0.147841;
0.127291;0.0193642;-0.145696;
0.127301;0.0190041;-0.142977;
0.127311;0.018569;-0.139693;
0.127321;0.0180606;-0.135859;
0.127331;0.0174809;-0.131488;
0.127341;0.0168323;-0.126599;
0.127351;0.0161172;-0.12121;
0.127361;0.0153385;-0.115343;
0.127371;0.0144992;-0.10902;
0.127381;0.0136028;-0.102266;
0.127391;0.0126526;-0.0951092;
0.127401;0.0116526;-0.0875763;
0.127411;0.0106065;-0.0796975;
0.127421;0.00951858;-0.0715037;
0.127431;0.00839309;-0.0630273;
0.127441;0.00723448;-0.0543019;
0.127451;0.00604732;-0.0453618;
0.127461;0.00483629;-0.0362424;
0.127471;0.00360618;-0.0269797;
0.127481;0.00236183;-0.0176103;
0.127491;0.00110816;-0.0081714;
0.127501;-0.00014988;0.00129982;
0.127511;-0.00140733;0.0107659;
0.127521;-0.00265923;0.0201893;
0.127531;-0.00390063;0.0295328;
0.127541;-0.00512663;0.0387595;
0.127551;-0.00633241;0.0478329;
0.127561;-0.00751319;0.0567172;
0.127571;-0.00866432;0.0653772;
0.127581;-0.00978126;0.0737788;
0.127591;-0.0108596;0.0818887;
0.127601;-0.0118951;0.089675;
0.127611;-0.0128836;0.0971069;
0.127621;-0.0138213;0.104155;
0.127631;-0.0147044;0.110792;
0.127641;-0.0155295;0.116992;
0.127651;-0.0162934;0.122729;
0.127661;-0.0169929;0.127982;
0.127671;-0.0176253;0.13273;
0.127681;-0.0181882;0.136954;
0.127691;-0.0186794;0.140637;
0.127701;-0.0190968;0.143766;
0.127711;-0.0194388;0.146327;
0.127721;-0.0197041;0.148311;
0.127731;-0.0198917;0.149711;
0.127741;-0.0200007;0.150519;
0.127751;-0.0200308;0.150734;
0.127761;-0.0199819;0.150355;
0.127771;-0.0198541;0.149383;
0.127781;-0.0196479;0.147821;
0.127791;-0.0193642;0.145676;
0.127801;-0.0190041;0.142957;
0.127811;-0.018569;0.139674;
0.127821;-0.0180606;0.135839;
0.127831;-0.0174809;0.131469;
0.127841;-0.0168323;0.126579;
0.127851;-0.0161172;0.12119;
0.127861;-0.0153385;0.115323;
0.127871;-0.0144992;0.109;
0.127881;-0.0136028;0.102247;
0.127891;-0.0126526;0.0950896;
0.127901;-0.0116526;0.0875567;
0.127911;-0.0106065;0.0796778;
0.127921;-0.00951858;0.071484;
0.127931;-0.0083931;0.0630077;
0.127941;-0.00723449;0.0542822;
0.127951;-0.00604732;0.0453421;
0.127961;-0.0048363;0.0362227;
0.127971;-0.00360618;0.02696;
0.127981;-0.00236183;0.0175907;
0.127991;-0.00110817;0.00815177;
0.128001;0.000149875;-0.00131945;
0.128011;0.00140732;-0.0107855;
0.128021;0.00265922;-0.0202089;
0.128031;0.00390062;-0.0295524;
0.128041;0.00512663;-0.0387792;
0.128051;0.0063324;-0.0478526;
0.128061;0.00751319;-0.0567368;
0.128071;0.00866432;-0.0653968;
0.128081;0.00978126;-0.0737984;
0.128091;0.0108596;-0.0819083;
0.128101;0.0118951;-0.0896946;
0.128111;0.0128836;-0.0971265;
0.128121;0.0138213;-0.104175;
0.128131;0.0147044;-0.110812;
0.128141;0.0155295;-0.117011;
0.128151;0.0162934;-0.122749;
0.128161;0.0169929;-0.128001;
0.128171;0.0176253;-0.132749;
0.128181;0.0181882;-0.136973;
0.128191;0.0186794;-0.140657;
0.128201;0.0190968;-0.143785;
0.128211;0.0194388;-0.146347;
0.128221;0.0197041;-0.148331;
0.128231;0.0198917;-0.14973;
0.128241;0.0200007;-0.150539;
0.128251;0.0200308;-0.150754;
0.128261;0.0199819;-0.150375;
0.128271;0.0198541;-0.149402;
0.128281;0.0196479;-0.147841;
0.128291;0.0193642;-0.145696;
0.128301;0.0190041;-0.142977;
0.128311;0.018569;-0.139693;
0.128321;0.0180606;-0.135859;
0.128331;0.0174809;-0.131488;
0.128341;0.0168323;-0.126599;
0.128351;0.0161172;-0.12121;
0.128361;0.0153385;-0.115343;
0.128371;0.0144992;-0.10902;
0.128381;0.0136028;-0.102266;
0.128391;0.0126526;-0.0951092;
0.128401;0.0116526;-0.0875763;
0.128411;0.0106065;-0.0796974;
0.128421;0.00951858;-0.0715036;
0.128431;0.00839309;-0.0630272;
0.128441;0.00723448;-0.0543018;
0.128451;0.00604732;-0.0453617;
0.128461;0.00483629;-0.0362423;
0.128471;0.00360618;-0.0269796;
0.128481;0.00236183;-0.0176103;
0.128491;0.00110816;-0.00817132;
0.128501;-0.00014988;0.0012999;
0.128511;-0.00140733;0.0107659;
0.128521;-0.00265923;0.0201894;
0.128531;-0.00390063;0.0295329;
0.128541;-0.00512663;0.0387596;
0.128551;-0.00633241;0.047833;
0.128561;-0.00751319;0.0567173;
0.128571;-0.00866432;0.0653773;
0.128581;-0.00978126;0.0737788;
0.128591;-0.0108596;0.0818888;
0.128601;-0.0118951;0.089675;
0.128611;-0.0128836;0.097107;
0.128621;-0.0138213;0.104155;
0.128631;-0.0147044;0.110792;
0.128641;-0.0155295;0.116992;
0.128651;-0.0162934;0.122729;
0.128661;-0.0169929;0.127982;
0.128671;-0.0176253;0.13273;
0.128681;-0.0181882;0.136954;
0.128691;-0.0186794;0.140637;
0.128701;-0.0190968;0.143766;
0.128711;-0.0194388;0.146327;
0.128721;-0.0197041;0.148311;
0.128731;-0.0198917;0.149711;
0.128741;-0.0200007;0.150519;
0.128751;-0.0200308;0.150735;
0.128761;-0.0199819;0.150355;
0.128771;-0.0198541;0.149383;
0.128781;-0.0196479;0.147821;
0.128791;-0.0193642;0.145676;
0.128801;-0.0190041;0.142957;
0.128811;-0.018569;0.139674;
0.128821;-0.0180606;0.135839;
0.128831;-0.0174809;0.131469;
0.128841;-0.0168323;0.12658;
0.128851;-0.0161172;0.121191;
0.128861;-0.0153385;0.115323;
0.128871;-0.0144992;0.109;
0.128881;-0.0136028;0.102247;
0.128891;-0.0126526;0.0950897;
0.128901;-0.0116526;0.0875568;
0.128911;-0.0106065;0.0796779;
0.128921;-0.00951858;0.0714841;
0.128931;-0.0083931;0.0630078;
0.128941;-0.00723449;0.0542823;
0.128951;-0.00604732;0.0453422;
0.128961;-0.0048363;0.0362228;
0.128971;-0.00360618;0.0269601;
0.128981;-0.00236183;0.0175908;
0.128991;-0.00110817;0.00815184;
0.129001;0.000149875;-0.00131937;
0.129011;0.00140732;-0.0107854;
0.129021;0.00265922;-0.0202088;
0.129031;0.00390062;-0.0295524;
0.129041;0.00512663;-0.0387791;
0.129051;0.0063324;-0.0478525;
0.129061;0.00751319;-0.0567367;
0.129071;0.00866432;-0.0653968;
0.129081;0.00978126;-0.0737983;
0.129091;0.0108596;-0.0819082;
0.129101;0.0118951;-0.0896945;
0.129111;0.0128836;-0.0971264;
0.129121;0.0138213;-0.104175;
0.129131;0.0147044;-0.110812;
0.129141;0.0155295;-0.117011;
0.129151;0.0162934;-0.122748;
0.129161;0.0169929;-0.128001;
0.129171;0.0176253;-0.132749;
0.129181;0.0181882;-0.136973;
0.129191;0.0186794;-0.140657;
0.129201;0.0190968;-0.143785;
0.129211;0.0194388;-0.146347;
0.129221;0.0197041;-0.148331;
0.129231;0.0198917;-0.14973;
0.129241;0.0200007;-0.150539;
0.129251;0.0200308;-0.150754;
0.129261;0.0199819;-0.150375;
0.129271;0.0198541;-0.149402;
0.129281;0.0196479;-0.147841;
0.129291;0.0193642;-0.145696;
0.129301;0.0190041;-0.142976;
0.129311;0.018569;-0.139693;
0.129321;0.0180606;-0.135859;
0.129331;0.0174809;-0.131488;
0.129341;0.0168323;-0.126599;
0.129351;0.0161172;-0.12121;
0.129361;0.0153385;-0.115342;
0.129371;0.0144992;-0.10902;
0.129381;0.0136028;-0.102266;
0.129391;0.0126526;-0.0951091;
0.129401;0.0116526;-0.0875762;
0.129411;0.0106065;-0.0796973;
0.129421;0.00951858;-0.0715035;
0.129431;0.00839309;-0.0630272;
0.129441;0.00723448;-0.0543017;
0.129451;0.00604732;-0.0453616;
0.129461;0.00483629;-0.0362422;
0.129471;0.00360618;-0.0269795;
0.129481;0.00236183;-0.0176102;
0.129491;0.00110816;-0.00817124;
0.129501;-0.00014988;0.00129997;
0.129511;-0.00140733;0.010766;
0.129521;-0.00265923;0.0201894;
0.129531;-0.00390063;0.029533;
0.129541;-0.00512663;0.0387597;
0.129551;-0.00633241;0.0478331;
0.129561;-0.00751319;0.0567174;
0.129571;-0.00866432;0.0653774;
0.129581;-0.00978126;0.0737789;
0.129591;-0.0108596;0.0818888;
0.129601;-0.0118951;0.0896751;
0.129611;-0.0128836;0.0971071;
0.129621;-0.0138213;0.104155;
0.129631;-0.0147044;0.110792;
0.129641;-0.0155295;0.116992;
0.129651;-0.0162934;0.122729;
0.129661;-0.0169929;0.127982;
0.129671;-0.0176253;0.13273;
0.129681;-0.0181882;0.136954;
0.129691;-0.0186794;0.140637;
0.129701;-0.0190968;0.143766;
0.129711;-0.0194388;0.146327;
0.129721;-0.0197041;0.148311;
0.129731;-0.0198917;0.149711;
0.129741;-0.0200007;0.150519;
0.129751;-0.0200308;0.150735;
0.129761;-0.0199819;0.150355;
0.129771;-0.0198541;0.149383;
0.129781;-0.0196479;0.147821;
0.129791;-0.0193642;0.145677;
0.129801;-0.0190041;0.142957;
0.129811;-0.018569;0.139674;
0.129821;-0.0180606;0.135839;
0.129831;-0.0174809;0.131469;
0.129841;-0.0168323;0.12658;
0.129851;-0.0161172;0.121191;
0.129861;-0.0153385;0.115323;
0.129871;-0.0144992;0.109;
0.129881;-0.0136028;0.102247;
0.129891;-0.0126526;0.0950898;
0.129901;-0.0116526;0.0875569;
0.129911;-0.0106065;0.079678;
0.129921;-0.00951858;0.0714842;
0.129931;-0.0083931;0.0630078;
0.129941;-0.00723449;0.0542824;
0.129951;-0.00604732;0.0453423;
0.129961;-0.0048363;0.0362229;
0.129971;-0.00360618;0.0269602;
0.129981;-0.00236183;0.0175909;
0.129991;-0.00110817;0.00815192;
0.130001;0.000149875;-0.00131929;
0.130011;0.00140732;-0.0107853;
0.130021;0.00265922;-0.0202087;
0.130031;0.00390062;-0.0295523;
0.130041;0.00512663;-0.038779;
0.130051;0.0063324;-0.0478524;
0.130061;0.00751319;-0.0567367;
0.130071;0.00866432;-0.0653967;
0.130081;0.00978126;-0.0737982;
0.130091;0.0108596;-0.0819081;
0.130101;0.0118951;-0.0896944;
0.130111;0.0128836;-0.0971264;
0.130121;0.0138213;-0.104175;
0.130131;0.0147044;-0.110812;
0.130141;0.0155295;-0.117011;
0.130151;0.0162934;-0.122748;
0.130161;0.0169929;-0.128001;
0.130171;0.0176253;-0.132749;
0.130181;0.0181882;-0.136973;
0.130191;0.0186794;-0.140656;
0.130201;0.0190968;-0.143785;
0.130211;0.0194388;-0.146347;
0.130221;0.0197041;-0.148331;
0.130231;0.0198917;-0.14973;
0.130241;0.0200007;-0.150539;
0.130251;0.0200308;-0.150754;
0.130261;0.0199819;-0.150374;
0.130271;0.0198541;-0.149402;
0.130281;0.0196479;-0.14784;
0.130291;0.0193642;-0.145696;
0.130301;0.0190041;-0.142976;
0.130311;0.018569;-0.139693;
0.130321;0.0180606;-0.135859;
0.130331;0.0174809;-0.131488;
0.130341;0.0168323;-0.126599;
0.130351;0.0161172;-0.12121;
0.130361;0.0153385;-0.115342;
0.130371;0.0144992;-0.10902;
0.130381;0.0136028;-0.102266;
0.130391;0.0126526;-0.095109;
0.130401;0.0116526;-0.0875761;
0.130411;0.0106065;-0.0796972;
0.130421;0.00951858;-0.0715034;
0.130431;0.00839309;-0.0630271;
0.130441;0.00723448;-0.0543016;
0.130451;0.00604732;-0.0453615;
0.130461;0.00483629;-0.0362421;
0.130471;0.00360618;-0.0269794;
0.130481;0.00236183;-0.0176101;
0.130491;0.00110816;-0.00817117;
0.130501;-0.000149879;0.00130005;
0.130511;-0.00140733;0.0107661;
0.130521;-0.00265923;0.0201895;
0.130531;-0.00390063;0.029533;
0.130541;-0.00512663;0.0387598;
0.130551;-0.00633241;0.0478332;
0.130561;-0.00751319;0.0567174;
0.130571;-0.00866432;0.0653774;
0.130581;-0.00978126;0.073779;
0.130591;-0.0108596;0.0818889;
0.130601;-0.0118951;0.0896752;
0.130611;-0.0128836;0.0971071;
0.130621;-0.0138213;0.104155;
0.130631;-0.0147044;0.110792;
0.130641;-0.0155295;0.116992;
0.130651;-0.0162934;0.122729;
0.130661;-0.0169929;0.127982;
0.130671;-0.0176253;0.13273;
0.130681;-0.0181882;0.136954;
0.130691;-0.0186794;0.140637;
0.130701;-0.0190968;0.143766;
0.130711;-0.0194388;0.146327;
0.130721;-0.0197041;0.148312;
0.130731;-0.0198917;0.149711;
0.130741;-0.0200007;0.15052;
0.130751;-0.0200308;0.150735;
0.130761;-0.0199819;0.150355;
0.130771;-0.0198541;0.149383;
0.130781;-0.0196479;0.147821;
0.130791;-0.0193642;0.145677;
0.130801;-0.0190041;0.142957;
0.130811;-0.018569;0.139674;
0.130821;-0.0180606;0.135839;
0.130831;-0.0174809;0.131469;
0.130841;-0.0168323;0.12658;
0.130851;-0.0161172;0.121191;
0.130861;-0.0153385;0.115323;
0.130871;-0.0144992;0.109;
0.130881;-0.0136028;0.102247;
0.130891;-0.0126526;0.0950898;
0.130901;-0.0116526;0.0875569;
0.130911;-0.0106065;0.0796781;
0.130921;-0.00951858;0.0714843;
0.130931;-0.0083931;0.0630079;
0.130941;-0.00723449;0.0542825;
0.130951;-0.00604732;0.0453424;
0.130961;-0.0048363;0.0362229;
0.130971;-0.00360618;0.0269603;
0.130981;-0.00236183;0.0175909;
0.130991;-0.00110817;0.00815199;
0.131001;0.000149875;-0.00131922;
0.131011;0.00140732;-0.0107853;
0.131021;0.00265922;-0.0202087;
0.131031;0.00390062;-0.0295522;
0.131041;0.00512663;-0.0387789;
0.131051;0.0063324;-0.0478523;
0.131061;0.00751319;-0.0567366;
0.131071;0.00866432;-0.0653966;
0.131081;0.00978126;-0.0737981;
0.131091;0.0108596;-0.0819081;
0.131101;0.0118951;-0.0896943;
0.131111;0.0128836;-0.0971263;
0.131121;0.0138213;-0.104175;
0.131131;0.0147044;-0.110812;
0.131141;0.0155295;-0.117011;
0.131151;0.0162934;-0.122748;
0.131161;0.0169929;-0.128001;
0.131171;0.0176253;-0.132749;
0.131181;0.0181882;-0.136973;
0.131191;0.0186794;-0.140656;
0.131201;0.0190968;-0.143785;
0.131211;0.0194388;-0.146346;
0.131221;0.0197041;-0.148331;
0.131231;0.0198917;-0.14973;
0.131241;0.0200007;-0.150539;
0.131251;0.0200308;-0.150754;
0.131261;0.0199819;-0.150374;
0.131271;0.0198541;-0.149402;
0.131281;0.0196479;-0.14784;
0.131291;0.0193642;-0.145696;
0.131301;0.0190041;-0.142976;
0.131311;0.018569;-0.139693;
0.131321;0.0180606;-0.135859;
0.131331;0.0174809;-0.131488;
0.131341;0.0168323;-0.126599;
0.131351;0.0161172;-0.12121;
0.131361;0.0153385;-0.115342;
0.131371;0.0144992;-0.109019;
0.131381;0.0136028;-0.102266;
0.131391;0.0126526;-0.0951089;
0.131401;0.0116526;-0.087576;
0.131411;0.0106065;-0.0796972;
0.131421;0.00951858;-0.0715034;
0.131431;0.00839309;-0.063027;
0.131441;0.00723448;-0.0543016;
0.131451;0.00604732;-0.0453615;
0.131461;0.00483629;-0.036242;
0.131471;0.00360618;-0.0269794;
0.131481;0.00236183;-0.01761;
0.131491;0.00110816;-0.00817109;
0.131501;-0.000149879;0.00130012;
0.131511;-0.00140733;0.0107662;
0.131521;-0.00265923;0.0201896;
0.131531;-0.00390063;0.0295331;
0.131541;-0.00512663;0.0387598;
0.131551;-0.00633241;0.0478333;
